78 100
agreement 0.029574428281774593 -0.09690623474993211 -0.06502723896980009 -0.0774849733220027 0.22308889771101673 -0.10808677467831732 0.17228293760703828 0.323179115412355 -0.03881244294398396 -0.36327619821366 0.002351501592936567 0.038451039441803316 0.04351401949571399 0.05911365741212324 0.2262112330584563 0.3487571133952987 0.049575356020990426 0.26152993999617385 -0.2402971878112181 0.05213910031870205 0.19301889331729635 0.10844342052875236 0.031276060004447215 -0.17492530946249937 0.0048606963714642746 -0.12739288111014727 -0.0673960830425237 0.17019743055433628 -0.0917132154940532 0.09569743909824274 -0.2993898902354622 -0.17538228422613059 0.05273592816428995 -0.06464768253042226 0.12048532561734482 0.06916296589463522 0.0958163573194599 0.05378619264502982 0.02474282592608482 -0.022361257986110765 -0.037863353548424974 -0.044581394849160204 0.08305211237273001 -0.06389165173170969 -0.11600176545885842 -0.12452367770334016 -0.1452365918580866 0.3404085179235088 0.19661639292178734 -0.03864604665406438 -0.16920803936415124 0.16140860407370308 0.027419184524913213 -0.062760142739943 0.011892511888811606 -0.02637904042224798 0.07513431185003024 0.32602070831351554 0.11972603273480067 0.12560732932034407 -0.2128224985145473 -0.06887526717545486 0.13373837131338318 0.01195559569075149 0.08217904102348655 0.352494397118597 -0.04141575672826568 0.058265012103931535 -0.17539668916331738 -0.00289572640102151 0.017770509192375095 0.07376165643130787 0.018394017460673588 -0.055922631672894164 -0.1496560153157982 -0.004250538560515657 -0.11047742744121405 0.16943899376957794 -0.20299588515426337 -0.04644540196225741 0.24064228784155867 -0.37326887253103425 0.15138352515271083 -0.02813639701960479 0.3036742867334371 0.15016834526240452 0.13226841375337298 -0.07453844613034387 -0.18099020228452964 0.10853471872438197 -0.21594193625763833 0.1537187931242951 -0.03974901145773504 -0.20986454725197054 -0.04288381677607568 -0.209779966907807 -0.09821438600543135 0.08470342030668669 -0.130317674258374 -0.029423051524279396
countries 0.03203685229286073 -0.10331311112872939 -0.07480112788847056 -0.0766847347010899 0.23653480267448335 -0.11108834757479741 0.17677038284860547 0.34368521958228426 -0.03950532832439985 -0.38942745642065846 0.004452205468401622 0.03910215672456005 0.05196943322421891 0.06355478571164773 0.23941865757100553 0.35977223532479824 0.04430723627589836 0.27767078925962463 -0.2600810692425592 0.0534298026478184 0.20743235567338494 0.10622815639893309 0.025899453942420395 -0.18615754078610455 0.004874415133640657 -0.13908832893949125 -0.07253307741815945 0.17567733854729575 -0.10149834158087045 0.0985985878487391 -0.32057764714962633 -0.1931004244070283 0.05518764258254107 -0.07535056372176037 0.1277995480412599 0.06951454368636734 0.09260699364130764 0.058391797217777416 0.025937580176325695 -0.01761523171431475 -0.04256993670973443 -0.0478814474938056 0.0915468754361315 -0.07508257932624553 -0.12348871749988874 -0.12405761286589269 -0.15154045116729462 0.3674373645132992 0.21240878208350364 -0.04089901927934772 -0.18549107396271491 0.17329589394952277 0.030225016620744796 -0.0670111132886235 0.012492513197515868 -0.033408091395946686 0.0834222935897088 0.3495524561837771 0.11578274955920789 0.12899105100341315 -0.23195157703566324 -0.08381033064631478 0.14370493812809268 0.01258112071210493 0.08170223036785985 0.36606260405482427 -0.043441154924153506 0.06262111927536526 -0.18413108369240364 -0.0018910840572145683 0.020301154790729282 0.07027756698473926 0.025978857774699937 -0.058671339154507715 -0.16479845021978867 -0.0035042360227600673 -0.11457867467435201 0.18236570227574933 -0.2090429790218555 -0.04884288902471626 0.2595239377425062 -0.3814827732527747 0.1541236497724244 -0.02960082414986262 0.3203616163055122 0.15656658003497526 0.1311467380003334 -0.08569703714888074 -0.19283169271869513 0.10916880241500494 -0.22687850149769764 0.16164787808232142 -0.040473883618139986 -0.22438933723806992 -0.0451814360962797 -0.2146159943882797 -0.11218250361725819 0.08937031548040796 -0.1332122866060629 -0.02662737512574408
eu 0.026990720638924624 -0.0949045062963934 -0.06718401599307233 -0.07463655650066382 0.2287120182610632 -0.10901003265778986 0.17463260604460032 0.335025908489684 -0.03788443532320367 -0.37736646741347774 0.006918318162194026 0.03593621379603694 0.05038417149394266 0.05374659235980335 0.2258717071691153 0.35404170571465865 0.042716659211094375 0.2679512332196984 -0.2452165954801318 0.048693059539759304 0.19811306838435272 0.11145230739524856 0.025579371437894707 -0.18413255639721543 0.0008082357193566918 -0.13265378717620713 -0.06724110642038802 0.17268678138866161 -0.09056454027904491 0.10323750988286341 -0.3126394620313216 -0.18427585475003153 0.05955246721154557 -0.0640159380435032 0.12354206519344141 0.06635378516006084 0.09077644750613134 0.05765103807045747 0.0288661350586862 -0.0229455297427406 -0.03953099323290449 -0.047874788419828146 0.08884933418880869 -0.06765345837755772 -0.11401894080079521 -0.12917377449670572 -0.14712555025404053 0.3572287582275867 0.20236315505380043 -0.047707553193590796 -0.1795433538916181 0.16648938280142186 0.03197726980634389 -0.06239974057938161 0.01571105931430802 -0.026837146564759606 0.08314993154562485 0.3342685041132214 0.12088021799167344 0.126803276074934 -0.21948431721832665 -0.07599016088110344 0.13504375446884773 0.01351716496472402 0.08316122697618131 0.36474085347696134 -0.03903260207685318 0.05301276614184945 -0.18792432282248264 -0.0024898534028583077 0.020768987137754494 0.07203049784596721 0.025921750940093698 -0.05074612903453642 -0.15402536558309488 -0.005388712689002494 -0.10675855039763817 0.17372424177310175 -0.205703049415645 -0.047224851893951536 0.255076943406586 -0.3815751507812943 0.14946978440432007 -0.026674605757493457 0.31310721156649035 0.15405359654628714 0.129540093249836 -0.08213268371237853 -0.1836259418399489 0.11228621204655026 -0.2186243359834171 0.15733741633690304 -0.04030547387593224 -0.21803537843119455 -0.034146954187257286 -0.21589272188547737 -0.10311468773185177 0.09002905223920925 -0.13224659073776862 -0.02885701698897079
number 0.02609096338084508 -0.10443783736353146 -0.07470018636190469 -0.07677456121913896 0.24161290434940882 -0.11695228742750347 0.18395342992564528 0.3427829802338258 -0.042920386987807965 -0.38345292844524986 0.002671997178448107 0.04049508467926319 0.047224409555119286 0.06383574417794996 0.23483385656685135 0.35833554858861033 0.04877654352951456 0.27108160041829904 -0.25292233920347873 0.05212238725473837 0.21005811628499357 0.11345058104657176 0.03110512213449321 -0.18350039255271927 0.003093836334217243 -0.13408521959866826 -0.06201321872638275 0.1772002568475481 -0.09887873520654442 0.10872824410642291 -0.3196237764173511 -0.1948179690901336 0.05491261585952173 -0.0716938498135863 0.12853434753822962 0.07524700675733977 0.09731323978671472 0.059054807691710585 0.03286076794342729 -0.02136937983798947 -0.04551817991954092 -0.0523079361856203 0.08991876126671429 -0.07288081285018203 -0.11772487269287558 -0.12571904794988426 -0.1521500167791996 0.3633949472615549 0.20890885341223064 -0.04429472104108628 -0.17584574287672738 0.17479729694169663 0.03559521705817268 -0.06860583790388926 0.018797819183728904 -0.031146435505102318 0.0848506540511273 0.33937948973183335 0.12454553932103256 0.128989810280254 -0.2286720979325483 -0.07692292318399649 0.1326873649984132 0.012342846797985795 0.08451355551891598 0.36859967878658245 -0.04522146838957028 0.05330808969276835 -0.18355713556354328 -0.003263905462555611 0.020747909757067383 0.07914221237329142 0.028105168993407755 -0.0598198347283864 -0.16380758378849783 -0.0028715204379192037 -0.10627639977806085 0.17431544977963973 -0.20380323450023324 -0.04478156170529925 0.25244623502401814 -0.38751036718632403 0.1517306869392773 -0.02877871141574006 0.32124442710040346 0.15443047880615496 0.1410371347940459 -0.08299916014908004 -0.19489480180809696 0.11574543346095825 -0.21793248207723304 0.1572678483402702 -0.03537837926478945 -0.21449780807530758 -0.041981436670402564 -0.22019296023179263 -0.10953100269243944 0.09262623149248433 -0.14139665760020223 -0.026379976612615576
over 0.021723922587113614 -0.0969227221881115 -0.07444840403062383 -0.0788646074381982 0.23409305445828582 -0.11567577713628971 0.17296941340782207 0.3370887790753862 -0.034785565508811414 -0.3773418983111271 0.005872019865869902 0.03928091601707401 0.050358605695205956 0.0648345494844696 0.23291780757122524 0.3585858481193465 0.05051502443355127 0.27003121696651844 -0.24701446826469192 0.05038959273883514 0.20126760271916688 0.10714935760706165 0.02917077854201476 -0.18693920531539124 -0.0014487771388998713 -0.13765820945764784 -0.06421980808937358 0.16836277673956465 -0.09772557846556185 0.09840469790120672 -0.30901527571527854 -0.18212499026894033 0.05592247717364601 -0.0669099189847589 0.12301023927139494 0.06854667462294059 0.09552094658148212 0.06266313544725777 0.030535746620630574 -0.022933093428164245 -0.044394354638311186 -0.053672213820060495 0.08395654029353705 -0.06613290849121568 -0.12025861214585125 -0.1265875844577775 -0.15744036925575278 0.3533108250564631 0.20951521434842438 -0.042399488431787306 -0.17975264702064517 0.17148621609853507 0.03425897206313856 -0.06334724224806432 0.012303656006017351 -0.028139793826428238 0.07730006444726602 0.34156345558854023 0.11943187098022819 0.1289327092551262 -0.22387176545833726 -0.07419695039671068 0.1329249345072501 0.016902976399767917 0.07874531924429051 0.36514921561718205 -0.03866873938853687 0.06228778971793639 -0.18480875934479085 -0.0031920203560327457 0.02283327915571957 0.07321429941158544 0.025742239748994655 -0.053916342923089534 -0.16302344439470487 -0.0006435335371200929 -0.10580503591868431 0.17432016251810775 -0.20394542714590636 -0.0523663549737572 0.25303597508784764 -0.3820639828664805 0.1478878248613944 -0.021681932621360273 0.3141872115881134 0.15912923351111471 0.13172656626270499 -0.07625620300551361 -0.1901730465769116 0.1074041534704066 -0.22340816467789582 0.15421694019522278 -0.04045271687148536 -0.21511928894853327 -0.035529746773459624 -0.21807236847623418 -0.10670614887315785 0.08448957000025639 -0.13862907406065006 -0.026099207826210245
religious 0.03182105256412952 -0.0979954095846042 -0.0723917892294887 -0.07532086027687035 0.2348052940218625 -0.11652295343383022 0.17587926082125696 0.33985647335102614 -0.03891489639279165 -0.38029341934088845 0.004453875310139598 0.03314663893312709 0.04130515058899091 0.058818763304950505 0.2324159010603684 0.3533594538338889 0.051036780885908344 0.267051947787512 -0.2532952170978968 0.053904172325596904 0.2030573298428399 0.10313513801202089 0.026847272606583067 -0.18027814509639303 0.004372842851918979 -0.13417004510984518 -0.07069999621117998 0.16921460493151283 -0.0945302605928194 0.1055506651510608 -0.3079559222125257 -0.1880913198933645 0.05863887128791344 -0.07036038671086084 0.12144396464453495 0.07232904105287061 0.09296283299980547 0.05623558992644234 0.030793711494776495 -0.015618649593738118 -0.04292950868712311 -0.046766499750340716 0.08952170304181452 -0.07728323358965211 -0.12160484658930895 -0.1261023012121015 -0.15622301854996057 0.35267313041170556 0.20819843408569336 -0.0430136131001447 -0.1819520244092383 0.16949187747227598 0.027711326491052422 -0.06582685927762791 0.018755464394032462 -0.02789045230912783 0.0763884743811625 0.33480146008357986 0.11374982303290239 0.12552370400136498 -0.2222280100292394 -0.07425245038585263 0.13661788277223316 0.009972829752462093 0.0825150581999729 0.36470918703128863 -0.04513460131169529 0.05677414453143173 -0.18258850832420737 -0.006050809121023343 0.025975294353427936 0.07040063028293438 0.0213169216104745 -0.052162195037308644 -0.1562448242482342 0.0003277682274238225 -0.11412654074833617 0.18090287001444477 -0.2077365238366208 -0.045589239401345565 0.24828104943626197 -0.3784866436889113 0.1578921633865957 -0.02155925214270054 0.3154565586335785 0.15165883914933778 0.13849606216006058 -0.07595699293571383 -0.18294592995286962 0.10637877125866144 -0.21881319537105795 0.15410674864064103 -0.03472979423581038 -0.2079518950852179 -0.04076657926213325 -0.2187526385368581 -0.11054056388370238 0.09180074074224488 -0.13136467107278546 -0.02588293026813094
since 0.031146220507454293 -0.10295580181359351 -0.07537605923379977 -0.08228512595766714 0.24121168713379118 -0.12059812361374343 0.18665857850942275 0.3414343052243248 -0.03675529134831942 -0.38335112453209697 0.0011170765844733263 0.03867114597060764 0.040717139721352054 0.06400003217520941 0.2348403390151642 0.3650291092364327 0.04627936106673149 0.2780736679008745 -0.25558896523074714 0.054355568525227244 0.20462823851509926 0.11264065189026731 0.029317859406572187 -0.18849861795906736 0.006936517970755864 -0.13829764074008774 -0.06541513063748157 0.1765019950375698 -0.09749400522228277 0.10101573586462481 -0.3172933363802852 -0.18736623350425793 0.0545624887649242 -0.07507439708715898 0.12381519453770515 0.07003737225998156 0.09660214341972945 0.062652095759911 0.024751141501065086 -0.018092523126101538 -0.041911897242400124 -0.0534143932962129 0.0835783096574255 -0.0709343537274962 -0.12511471736808902 -0.13040074594650558 -0.15140660318600466 0.3612036435387723 0.20857868961792023 -0.041196054684663114 -0.1859515105408622 0.17542439024069656 0.031724920277974765 -0.06683817502823142 0.013397651044486845 -0.03129413670867209 0.08363313630355938 0.3420584718163268 0.12152569562551001 0.13589570929092376 -0.22951567318255897 -0.07762215164374618 0.1372634424952732 0.02049226760275511 0.08246462150875429 0.3721633308873817 -0.038616253847677556 0.062157813027524364 -0.18989711512898771 -0.003353768592737831 0.02149784953340746 0.07189029855213516 0.017547648462914064 -0.06022547142986994 -0.1564489257760664 -0.005412795077675741 -0.11689982280193995 0.1794213181966831 -0.2120039405165708 -0.053257451557800345 0.2617060140664866 -0.3891264596128932 0.15464297027223264 -0.02989617901657725 0.322179584937713 0.161507823903029 0.1368117567480513 -0.07783482489167484 -0.1879618282308824 0.11356751923696072 -0.21957539163570644 0.16263833164825817 -0.0394677638718778 -0.2146852642956688 -0.043078312888906345 -0.2180008529138645 -0.10817786297562981 0.08655274522563906 -0.13847090713623061 -0.02703891849200902
some 0.02850515244441483 -0.10005237494713654 -0.06654198487143169 -0.07241278950875996 0.2337375084284236 -0.11571886595303874 0.18083951668131074 0.3342605507080008 -0.04072992452207636 -0.3791359697634809 0.0038525519875561016 0.0353080250525938 0.048114326377868666 0.05815438771881989 0.23665089657730884 0.35439511425218356 0.050852992788633644 0.266931019156577 -0.25615047030253735 0.04770344352046743 0.2035914690977323 0.1104305946213292 0.03456761011408555 -0.182420058411226 0.0052551805693672494 -0.12671605096438263 -0.06800626010779978 0.17346367532145054 -0.09390766270824955 0.10281026257388591 -0.3136643973338884 -0.1821115821692247 0.055413031946031886 -0.0724281555249367 0.12462319236934305 0.06451816604180789 0.093360952045332 0.06081622075847873 0.029468845808236277 -0.018789326105925572 -0.037328723122688534 -0.053620421708078375 0.08790205552900038 -0.06702524127026589 -0.12055042687235802 -0.13046228914701538 -0.15004733955516306 0.3572608381905131 0.20860355806561054 -0.04336514142178043 -0.17291596267098377 0.17523206455010723 0.03167100125538755 -0.05997092960687536 0.01722673233691835 -0.028843167822352463 0.07819142847743821 0.3367399221526784 0.12250810857158709 0.13162037124527942 -0.22922005775469725 -0.07589364563358766 0.13182004946906203 0.01331461875183228 0.08641016269513006 0.36895677304802055 -0.035823108051114085 0.0645845392854686 -0.18953325222751355 -0.007698498477451356 0.024863578182265613 0.0767878192929664 0.021326273056710608 -0.056864787233008314 -0.1568451887774733 -0.007910681149752387 -0.10444752410718598 0.172940455032661 -0.20653432867763696 -0.044816304939692624 0.2504091532737879 -0.3829580490046362 0.15319440805318255 -0.025218433282311627 0.31495612071533896 0.1592758439364685 0.13219976937294553 -0.07931106330779703 -0.18916650536142243 0.10915940379431792 -0.21901020235926705 0.15398090432607986 -0.032438887663453736 -0.21070389930234756 -0.03978108241513347 -0.2176290223279911 -0.10433513824009814 0.08855523110509057 -0.14132930074843902 -0.031887659483926245
there 0.02689390081865746 -0.10396649974270164 -0.07576977563692289 -0.07349481784457232 0.23441756178600365 -0.11852230424849353 0.18725719908125665 0.33916742500413016 -0.03702209988893634 -0.38572017005883685 0.004123062106715729 0.03856385093931833 0.05187458923658492 0.055990777027169966 0.2369306701747094 0.36146392325587834 0.0475759247550264 0.2752287479415222 -0.258668945176482 0.04879923464125284 0.20735677108274903 0.11177126391415744 0.02696397766531637 -0.1891939178140274 0.0009798051977601232 -0.14076414748312563 -0.06121354762275652 0.16896412049811396 -0.09150639578734444 0.11211075084252779 -0.313262662549255 -0.19327590488699353 0.05925331082839428 -0.07152468678133883 0.12230878285624253 0.07556910634187497 0.09835642747893558 0.05505071008921916 0.02449682463221418 -0.020922867298539205 -0.04617252385076422 -0.05071304523235876 0.08816485349957705 -0.0697844053872131 -0.12794880059678826 -0.13167281053295316 -0.1588566621412114 0.3608140650864803 0.21060085738584194 -0.03819626672542215 -0.17789109345605766 0.17419983741470987 0.027382899825992697 -0.06583829586943123 0.019040695143115804 -0.02977580736012322 0.0777649194345214 0.34654069651844 0.11903575501070436 0.1303180970516516 -0.23234798045597746 -0.08129014312426855 0.13444125418403183 0.010028022017131558 0.08241419921505383 0.3756635416984341 -0.04203485693142763 0.05372908758588103 -0.18534354404175563 -0.0022513444928080584 0.02554029202402127 0.07797859810421558 0.027958635691957116 -0.05951645405872627 -0.1628492878040184 -0.004014864539670603 -0.11371823871251244 0.17516544910602094 -0.20423119558670247 -0.04671282166627768 0.2592333280469982 -0.38771240558160575 0.15751193794801158 -0.026615235426272147 0.3152485234133675 0.1626765927097598 0.13574267895189895 -0.08534322573809214 -0.19446060444251465 0.10894334159592862 -0.22001903165502534 0.15440944510851362 -0.03850730854588256 -0.2160899957386491 -0.03615672795745247 -0.21989742331705034 -0.10807012797386902 0.0836631239076428 -0.14333738728423992 -0.029434575200022114
top 0.0267599564666492 -0.10300899856398636 -0.07487886435403335 -0.0809244118151672 0.23554689950321633 -0.10515513758799196 0.17652365363323888 0.3339652232994558 -0.045436541934338215 -0.3818913211813943 -0.0011307855577248535 0.036896613288670645 0.05135772349262571 0.05573180413622106 0.228013376475086 0.36319587823177857 0.053242069170207386 0.2681974916616463 -0.24416561374544657 0.05834618601037633 0.19864116977354968 0.11563418492325842 0.030920793048245653 -0.1830929298660435 -0.0038665196747198136 -0.13901860955823958 -0.061441399921023925 0.16504441900906744 -0.09051735125789746 0.11093346748192383 -0.3189725486569535 -0.18492944264031053 0.0492154613541055 -0.07438006385042255 0.1280118035423227 0.07586703741096847 0.09842681104506171 0.0508479254288568 0.021423026359432815 -0.01773004235303124 -0.043802097745850505 -0.04414052547901946 0.0927944252231739 -0.06813391877803192 -0.12045270246580786 -0.12157455979227852 -0.15753608204177896 0.3599892589971514 0.2063883877082974 -0.04091408694030522 -0.17302917677114232 0.16159478560157792 0.033939558296212806 -0.05717911009652167 0.01590129810669286 -0.027709567446764716 0.07981567879518078 0.3495464784251215 0.122272568062429 0.12714161820009265 -0.22642365339276793 -0.07179708235701805 0.1359623414769422 0.012135178102197377 0.08067352834539512 0.3716525557819274 -0.04168381405494042 0.04730542140848314 -0.1916138072655937 0.001631531322387718 0.016455424194783342 0.07522952348211687 0.019243678504855043 -0.05173632962494554 -0.16785318951656356 -0.01207382465897309 -0.10227219433376405 0.1755237302250771 -0.20833255642827297 -0.04219786354375137 0.2567658688430183 -0.3780203500139446 0.16313019244850974 -0.02680311608253702 0.3202569480526121 0.15638773731472258 0.13891964364264836 -0.07586022172743907 -0.1960095873471459 0.11886392441966023 -0.2196145969109454 0.1518379122633732 -0.03906009356266004 -0.22456298635689176 -0.03649031201456191 -0.21923209124576112 -0.11165589504674586 0.08016128316140624 -0.12938294799586747 -0.030007080650037033
well 0.031310373909581315 -0.0998294751837687 -0.07306004193332599 -0.08032628315431757 0.23255965435584955 -0.11431365298273821 0.17453577167139922 0.33353495545613737 -0.03523747616426521 -0.3774733545094784 0.0005293635143561322 0.04073507107145268 0.048188306151296906 0.058403083084033414 0.23772137614790267 0.35387003446979504 0.04820064010874612 0.27167561582001537 -0.24760221975963623 0.05159839402470592 0.20693385315985405 0.10530620109362744 0.03368778697266364 -0.1791162157407269 0.006541742031024668 -0.1374933997644928 -0.06231242502577157 0.16898737268334893 -0.09951729232259698 0.09883980569999586 -0.30880652674480974 -0.1887903595826521 0.06050546207712346 -0.07471660235431844 0.1261916593238786 0.06578264259179502 0.09221413045525058 0.0562755779434853 0.03023177890155685 -0.01755349780158608 -0.03994577674092655 -0.049907492704031955 0.08952145800738238 -0.07386972833198448 -0.1202072524497498 -0.13084217087615005 -0.14877222150128291 0.35877375138296136 0.20204234987740274 -0.044569955832254704 -0.17720017071304936 0.1706496896762882 0.03229637495480262 -0.061348411232471624 0.009236467782926732 -0.03322712148812866 0.08250869458847432 0.34601073257537523 0.12114785884120591 0.12677990380437748 -0.22439653819761282 -0.0734675136652217 0.13941657972893076 0.01180573875189326 0.08188033806806241 0.3644464189297811 -0.03634316744220217 0.0554551630355356 -0.18569572807099774 -0.0059060156621929625 0.02694124653266692 0.07218261156301796 0.018712480031637044 -0.05664091925353115 -0.16434951372039128 -0.001206989374515866 -0.1128277854564779 0.17786945171679822 -0.201644605011557 -0.04844401287969018 0.25702648945733864 -0.3796644852204287 0.1526213798367039 -0.02186914131558128 0.318899392835249 0.16038494797110478 0.13369022835434896 -0.08087053046568805 -0.1945891027626525 0.11433266546586159 -0.22164208156174986 0.15499767665187925 -0.039711099808858306 -0.22062730056625746 -0.04390954804331777 -0.2138302250336037 -0.10521881431830404 0.08826109131077887 -0.1336173179661186 -0.028509826750615933
all 0.02051458901938074 -0.10001604753042316 -0.07302512949739497 -0.07074232910520119 0.23596085330576483 -0.1048701311253916 0.17800985040410275 0.33228360624133124 -0.03884715196755106 -0.37008059733445314 0.005856216898197855 0.03495369789566799 0.04214268292730561 0.06326433760166587 0.2306387100501314 0.352344409449494 0.049953388998894926 0.26733646254487936 -0.2523876653120275 0.04671206363390842 0.19837524180309354 0.10695598351723254 0.029980113789879196 -0.18532430226786142 0.002255506785027729 -0.12900800987920966 -0.06828243559366567 0.16649988812342534 -0.09364008223755191 0.10423107100778431 -0.30323393398228654 -0.1856241765506494 0.05993058117657485 -0.06450731985227157 0.11676538262734706 0.06448239077616354 0.09103769561802373 0.05069266113816499 0.026869891242405804 -0.020176829316865624 -0.0391032737617706 -0.04609893335184736 0.08415651071694097 -0.07312747584352929 -0.12004134435246606 -0.1296564026047503 -0.1570974922659121 0.3518336606617999 0.19875159327866962 -0.043125053956475 -0.17826079272694265 0.1665686638283861 0.03264924794238926 -0.05912349158081677 0.013317341536955131 -0.02827979324824892 0.07886464086894852 0.33465739335189526 0.1220734187350697 0.12680858240887935 -0.2261062389196806 -0.07288531823039503 0.12770200100214651 0.011888195484648765 0.08484797380188658 0.3580140787658748 -0.04261397363308337 0.06048862309251574 -0.1803334874276216 -0.006413743409547761 0.02267912765761314 0.07711361920511114 0.025048549050533112 -0.053402273665915885 -0.15877743776132028 -0.008936651834973039 -0.1129660075323127 0.1719321997657631 -0.201357947828122 -0.04620410443560034 0.24616164020644687 -0.3743342129866517 0.14997672370107415 -0.025573595909225807 0.31402386074730215 0.15032721654879608 0.13927917786018923 -0.08508911614597806 -0.18899224573331608 0.10734333831968883 -0.22006616598365217 0.15301087511275754 -0.0398844729285416 -0.21891958075176596 -0.03720807669876205 -0.21632829206721368 -0.10253908880507862 0.08944366326194976 -0.1305336649298074 -0.02407504426385153
also 0.026246029140176347 -0.09734167251501183 -0.06603788125994506 -0.07736236955572363 0.23444468102414928 -0.11085553849321012 0.1742365031637758 0.3290515970039898 -0.035219003771595356 -0.37451223134457345 0.005528247829357147 0.03350854263024849 0.042548363955162864 0.05400366175323165 0.2330949418003727 0.34912667869912434 0.04768002010001299 0.26845363951445556 -0.24993222513991445 0.04608036304209677 0.19844343835705908 0.11193661698129917 0.02902030982259451 -0.17828146809215828 0.001600691209328647 -0.12741286738724428 -0.06279740891717317 0.16980755940242706 -0.09595010608122385 0.09792758039822945 -0.31041549285065884 -0.18647065413110983 0.0579712776635126 -0.07053475318742815 0.12428040320696128 0.06496667075418493 0.09793977000631857 0.055202379150038956 0.03027084446497353 -0.022024540687296392 -0.04586239362085376 -0.05003831557407255 0.08735733090848692 -0.06524466771580094 -0.11382616244119191 -0.12142121126968278 -0.15094022303376903 0.3546063293642652 0.20102288371753294 -0.045558365936252884 -0.17970047384876914 0.1649006379931901 0.03168274416065721 -0.06550033631506474 0.017605598177174043 -0.03166429546942024 0.08349552184453717 0.3400347957259434 0.12241693418312585 0.1276529720819188 -0.2207287053516362 -0.0780440206164987 0.13292975997993636 0.017038815163976834 0.08482921705250948 0.36243199578774576 -0.04218472044845436 0.0542731556631374 -0.18412200924844835 -0.008992857172097756 0.017282767199163048 0.07468395150557988 0.01798859127971757 -0.05491659931518675 -0.1568925399960172 -0.007413413691113081 -0.10444601589401702 0.17236724607061424 -0.207506313142465 -0.05058531677208348 0.24742026455231209 -0.3798559513948977 0.15217916635610185 -0.029266350178956683 0.3130882158058756 0.15981221073456425 0.12954811913992728 -0.07616728155233107 -0.1840979335728766 0.11276489121796539 -0.21572377905337978 0.1505487617897759 -0.03889459675728237 -0.21149388050829324 -0.036232095237079445 -0.21483542721219465 -0.10586039294641392 0.0885257387342296 -0.12866353001559547 -0.028308957946090712
many 0.028959868949798344 -0.1068652914745594 -0.0775501531126867 -0.08125079681057382 0.2463236112636556 -0.11464558988281649 0.18198970565144948 0.3453722616074259 -0.03692578974495536 -0.388536197990783 0.001594452319410224 0.03951919793483373 0.04827276913127249 0.06487154547440815 0.2374475660338534 0.37031585945501505 0.05100830167391759 0.27517391969687666 -0.25654864146247724 0.049358640217154894 0.2120207988467208 0.11006407083470217 0.035566715244994634 -0.18927215270807904 -0.0013003360612200456 -0.14364377101770376 -0.06572402238667233 0.17269621728707696 -0.09403137782288669 0.11171724570835792 -0.32601360008656766 -0.19419306185151602 0.05411893932442713 -0.07013992163731876 0.12462231087937359 0.071598584845948 0.09904156328846071 0.05710302876229968 0.023012532113641817 -0.015433913180147099 -0.04244398824421544 -0.047998348085604964 0.08624539951960604 -0.07449061786298186 -0.12491305540452674 -0.12892636708415797 -0.15783715759043973 0.36415738192050934 0.2067561913999298 -0.04480909457680518 -0.18017605308982265 0.17097161994597979 0.030420829827711268 -0.0637873775459707 0.016521393770276224 -0.029314385670998765 0.08085809944296503 0.356159592234978 0.11871204828548534 0.13396514429773096 -0.2383451991287038 -0.08414933113011468 0.14051581980176553 0.013830940185643037 0.08144391307905659 0.3779656424079881 -0.0432275384625437 0.05334594030137331 -0.19433411791994304 -0.0007975684652428639 0.027117037421887296 0.07351518519659969 0.018862292462702327 -0.054919818140209624 -0.16836470193946088 -0.0007538047436423909 -0.1135664608915251 0.17732230888812203 -0.21515617991235128 -0.045422401011704 0.2590148274822478 -0.39137726640657444 0.15826946106674328 -0.02407102636404187 0.3219591946851964 0.1627356810358381 0.14326321524329433 -0.08056116567883148 -0.1995745330372848 0.11739390719624324 -0.2297774605977379 0.1635156732574009 -0.04458872853892879 -0.22792782337038078 -0.03430569182478841 -0.22545942034147734 -0.11109204586598623 0.08340090449467584 -0.13313785848132573 -0.025669250050985453
oecd 0.03309797994597906 -0.09770889135865245 -0.06847157259274363 -0.07910507061122854 0.23308531894795725 -0.10999014231372461 0.17546219569478488 0.33188043579837595 -0.039169723235907956 -0.38243801029633845 0.0011747757607990838 0.04003399757815198 0.05006944774383148 0.054048608326948716 0.2396495037554382 0.3607097972355373 0.053794112033436196 0.2728980087794386 -0.25377779039635434 0.05513136581025259 0.2071929787209944 0.11279929824695485 0.03435959456799224 -0.1877420455482711 -0.0014314868032286176 -0.13216307553467127 -0.0714142943481068 0.17265231748677803 -0.0983355844060582 0.10456859048169052 -0.31634848029350693 -0.19470622443709257 0.054116310507160564 -0.06874046714680412 0.12765150096861086 0.06532332071293735 0.09518672593059413 0.062202504953063786 0.031369931059035794 -0.024891297272985745 -0.041122303154032244 -0.044540191131392015 0.08936612503360095 -0.06875391858710866 -0.12181519140003126 -0.130879241839371 -0.15097107187207148 0.36015837982918575 0.20652097587155044 -0.046354213755023244 -0.17145444884872868 0.16604275828460252 0.02892941241408724 -0.05915802113515013 0.01616721087598729 -0.027272750688252332 0.07769971449589438 0.3382475079401598 0.11684956688562818 0.12413876406244187 -0.23128428252342612 -0.0734013711974455 0.1428527183975401 0.01783922185281918 0.0776848223396343 0.3615301668949581 -0.037818712399927484 0.04935867378671951 -0.18428548728154834 -0.009252459742425558 0.02232908824520488 0.07350042121850156 0.024792297932565262 -0.0561010329446103 -0.16245626852324332 -0.0013731243511447904 -0.11430786196201702 0.17162531690392172 -0.20610315715477726 -0.0467185676420809 0.25725965290807334 -0.37646845899759673 0.15332040288138551 -0.02737740702766913 0.3116949658732489 0.1532770133565972 0.13156636652108525 -0.0847885642627676 -0.19739034463505667 0.11667213639482496 -0.22162819881403348 0.15376736151162057 -0.03497983853673219 -0.2121243569700229 -0.03524604623703187 -0.21244353948754158 -0.1038625024191288 0.09192115922349577 -0.12768593880982035 -0.022877173266495403
people 0.025743786813224367 -0.08976606671861591 -0.06857208422214305 -0.07474167716686841 0.22202606035202405 -0.10514915006131895 0.1665315176088141 0.3151184664008691 -0.03237793227848317 -0.35403264223212677 -5.7153057177366764e-05 0.035860931062765715 0.0383105083641582 0.05861609094273288 0.22362443442749416 0.3422832069321054 0.04320945768602138 0.25426957295698493 -0.24245618986044173 0.04855034205667733 0.19761025528729415 0.10691573731648892 0.02187486473511258 -0.17542509387543798 0.0008570845965980667 -0.12476336409304731 -0.0664720237396283 0.16159751179441967 -0.09256199218129871 0.10146525792217297 -0.3005452519194232 -0.1729800299448846 0.052778961309447564 -0.0653860204913679 0.12142329095202464 0.06716842826836285 0.08854021450070024 0.062029328848393635 0.02862168374335171 -0.018535711338552363 -0.03500811554966126 -0.04643063004039438 0.0819545725281198 -0.062900041616742 -0.11603836533314045 -0.12071143156745932 -0.14648649038010564 0.33711516252778956 0.19317671588582755 -0.0433355668798075 -0.16853902646067898 0.16360322555438833 0.03133566072304847 -0.05871354831053525 0.014136749232521558 -0.023292357486561468 0.0758813639780887 0.32317375441537693 0.1122761896900914 0.12345878539237362 -0.21596670151489739 -0.0719579961571021 0.12839915685815545 0.016130387870291488 0.08478254876105148 0.35137365546186683 -0.04124578583774022 0.06067807957098109 -0.17466836293268112 -0.0022568344910350526 0.022034944202988235 0.07519531781926325 0.026166100562049634 -0.047112432851128046 -0.1493668172598636 -0.004458784358378756 -0.09854520729420006 0.1624014207208988 -0.20083610472139943 -0.047028240275059106 0.23812407129641763 -0.36475907592088125 0.13949566601491925 -0.022881300188773997 0.2955419501122706 0.14477888714636417 0.1332690133595754 -0.07825393612588569 -0.17855572947938148 0.10793292222471977 -0.20760312437012834 0.1455434490080105 -0.03290481375693526 -0.2044760598661968 -0.03793857297779542 -0.2035933503981941 -0.09561081209554902 0.08697118596856898 -0.13381695859875933 -0.029776523195114733
religion 0.02864561278947964 -0.09834012769519927 -0.07653947094803432 -0.07401898692728183 0.2413742160246789 -0.1114655668666152 0.18483688697652595 0.3362310925311384 -0.04196618392076087 -0.38341993535505403 0.00033360721764834523 0.03313998666904507 0.052246829370587194 0.05529898481258913 0.23924498778582787 0.35128143803211165 0.05246624217672552 0.27687114882901 -0.25430734412198713 0.05054672031167734 0.20587748653719173 0.10653587928704084 0.03213538766470529 -0.18873641688868958 0.003529219421024208 -0.13206527463984497 -0.06253072442927476 0.16978536868840352 -0.0957161668930421 0.10328281081634086 -0.31074171020095165 -0.19190626698276983 0.06204444625446216 -0.07242296642680685 0.12197912531209941 0.07232564976247638 0.09302104804825552 0.06362352230696765 0.024047274392121766 -0.01984920900393199 -0.04172159455259477 -0.05037822400937356 0.08359000294176237 -0.0772749307057381 -0.12109188025019424 -0.1347713209438462 -0.1605606335605069 0.36244267368081606 0.20605003653879247 -0.03856032889716069 -0.17990722983479063 0.1777590212234201 0.036383134528531084 -0.0634777345225205 0.012948868778050284 -0.03126025493895188 0.0790899190145203 0.3446102363638351 0.12133308663264498 0.13205929960079754 -0.22984130380348985 -0.07582258210818232 0.13644257923942338 0.012697495623730968 0.07896314808250683 0.36504649128249933 -0.04290700942668656 0.060775334622648884 -0.1874736244316194 -0.008148879454291111 0.023583205995233378 0.07718851048002301 0.026911433491791634 -0.053689052092915676 -0.15744475844929504 -0.0059528963769613745 -0.11411690313680092 0.18094843584108394 -0.20423722533641758 -0.04852331377977171 0.2536662219335781 -0.38247821667059606 0.15788282642584325 -0.022711069477809175 0.3180160105597295 0.16013675889875525 0.14159278579351686 -0.07967739925699426 -0.19299214487592578 0.10759426161947558 -0.22079185958039532 0.16099315518997503 -0.03776056348239908 -0.21208750142702493 -0.04312569029194582 -0.2194222203327174 -0.11185756025503965 0.08644492268071877 -0.14442692638266846 -0.030418856440224476
school 0.027695927615959844 -0.09983057713823396 -0.0691142839885009 -0.07568664286099014 0.2370458754809417 -0.11435714410328286 0.1751586666737868 0.33399463899363174 -0.043034303723209016 -0.3830056144215106 0.00740297084716306 0.03394965532873413 0.042814003293257685 0.06259981359753668 0.23356566333312653 0.351317475175971 0.05189275069525112 0.2756967421207287 -0.24967812484662152 0.04978111736769701 0.20554535549444897 0.1096163964658334 0.03527865050011638 -0.18476956331201633 0.006733306230199088 -0.1361374511128949 -0.06807059914953263 0.16876467105316822 -0.09918269921754887 0.1016495153632869 -0.3092104156330249 -0.1909952691893755 0.05576462692846335 -0.0747516685784648 0.12112442293910497 0.07352843442961579 0.09453043151202416 0.06045527671873731 0.029815546359905565 -0.01916550134328408 -0.03845554285683942 -0.04341631374892075 0.08408171344170973 -0.0715286073052205 -0.12173835992574478 -0.128380781952869 -0.14912180939047753 0.3613086196042322 0.2027087508745701 -0.04171710367348833 -0.1737017124804928 0.17161251333866367 0.03705628422136536 -0.05732670638338579 0.012241973923875752 -0.02824829459319114 0.07747187622103929 0.3442873180617848 0.12073990587778992 0.13434040114093043 -0.22367802379353988 -0.07810365029767302 0.13950063639542828 0.015089103990696585 0.08275178894587512 0.369346457775234 -0.03919199670727302 0.05980249505836 -0.19047712235183092 -0.006348671741551023 0.0172572227921511 0.07549417787564423 0.025632945340775388 -0.05432995196562698 -0.15648289228326095 -0.008938426013342396 -0.11083793634323826 0.176603256354417 -0.20256479205225777 -0.04313576392680749 0.2502329869984068 -0.38382956403367025 0.1587240442601121 -0.026646344859894564 0.3148429214024413 0.15211822880411432 0.13513428084102494 -0.08271481668200956 -0.19356147805542057 0.115773701155491 -0.22361302521586413 0.15715242418193343 -0.038670138268152195 -0.22099297651557717 -0.04112068538805461 -0.2183076321562225 -0.10294382397685085 0.0870356025155859 -0.1299583124370246 -0.024089030539735254
students 0.027587924683135995 -0.09947145925865523 -0.0715026224093395 -0.08001590748852098 0.23286766737615727 -0.10618636456180483 0.18290878336009905 0.33631169143264045 -0.03626189488781358 -0.37351463268925084 0.006857670168067815 0.03222000192087717 0.051742707702383865 0.05674186898381229 0.22799299879273607 0.35062113151771684 0.04928432404924049 0.2701366158201392 -0.24769493720916647 0.04913909860464195 0.20258659119808403 0.11186444097771073 0.03387024618739561 -0.18253905609451693 0.0038002156453515743 -0.1373164864821151 -0.06620803377286913 0.16833190281598512 -0.0938695261035318 0.10148972319733046 -0.3137329844969481 -0.18420559887925375 0.05656792217337272 -0.06908705919061907 0.12183754652869135 0.07210850693781626 0.09329811730911211 0.05043282564566477 0.029430332980145406 -0.019179099109141947 -0.04131179314286269 -0.05144432527359498 0.08868097656486565 -0.0677188711508415 -0.12465303322221523 -0.12400592195414836 -0.15381234534462673 0.35825690683702466 0.19853291051734412 -0.04789698395004966 -0.1770626913913538 0.16664766032729794 0.029986366610749837 -0.06641685605190885 0.016157209712268715 -0.032420500605740796 0.07537108652360167 0.3430790334122608 0.11889232789581335 0.1256493891760394 -0.22980414158451257 -0.07316427003051063 0.13115410197612518 0.010675077266268054 0.07750915775831038 0.36697846063370954 -0.035267854124705594 0.05154766815743603 -0.18458274351239143 -0.0016070885087883628 0.02615572155320485 0.07452577953567058 0.018421794093250298 -0.05699424688144038 -0.15707974694245366 -0.0024168174804766905 -0.10859957745452199 0.17381053901043733 -0.2016710576720292 -0.04801677086190806 0.2574187740499465 -0.38319317332212227 0.15627499351078195 -0.019152531908893655 0.3099069532985024 0.15944205926996427 0.13620366851293683 -0.08547276149067483 -0.18899418054536626 0.11816134068735198 -0.2224564068795797 0.15266095409055624 -0.036294330053892716 -0.21237699271146926 -0.036275075096740404 -0.20940041236665238 -0.1045562688819386 0.08186639592370133 -0.13792324370371076 -0.02152711846057749
two 0.020565498873453106 -0.09320762790917995 -0.06410901534248833 -0.06889346051381302 0.2295370894040857 -0.10872701104900104 0.16921085447972498 0.33171041484414904 -0.04113837647557126 -0.36574963119639803 0.004968749735410904 0.03914716759820126 0.04000432439374116 0.06028199244237576 0.223899185484838 0.34830459023717136 0.04995804937958483 0.2584417391272814 -0.24144479349377504 0.05260148441086873 0.1954296411631146 0.10693521862759463 0.028250959073531343 -0.1777188647407717 0.006399655025916169 -0.12360107397637199 -0.06159982837239349 0.16453242293268136 -0.09038306914953162 0.0970063101593747 -0.30650166686776953 -0.17818472224593698 0.05743252880287564 -0.06798428219913544 0.11946326887364118 0.06181224319677007 0.09143816639782087 0.05879523482338304 0.02488526352108551 -0.021382622010667825 -0.04130143400206043 -0.05059389843410396 0.07947228831014062 -0.07188859451689131 -0.11002701415009879 -0.12705844506618458 -0.1544739170808753 0.3454258215192428 0.20234294380616613 -0.03585160045021794 -0.17476924407369274 0.1661682421876757 0.029442200154072347 -0.06637832830470577 0.017282099219846924 -0.03205215584121943 0.07473836577021604 0.3312922638887146 0.116830608500381 0.12790410543644626 -0.22059659197130496 -0.07157133134805951 0.1299984957597747 0.01827074937668435 0.0819250801940207 0.3505826661333082 -0.040684421295163455 0.058388414042854275 -0.17546948644331847 -0.00781782858777411 0.02138927578735435 0.06795876842208481 0.024923092119534793 -0.0507424088380508 -0.1548775448046203 -0.004047536451891553 -0.10295610624156855 0.16688928129550162 -0.20161302561177383 -0.047005949314395556 0.23838706558418188 -0.3705620479862239 0.14338872009760636 -0.021414646867424655 0.3052993284065501 0.15588937480262144 0.13370688412694798 -0.07574166994625209 -0.18472513976861438 0.1091401083188118 -0.20891292075554252 0.1522296737403306 -0.034904416646317674 -0.20948156046968652 -0.03562965131622028 -0.20653995992460736 -0.09923675420718936 0.08876298129304366 -0.13723328246131755 -0.026860035259467317
u 0.022767214305008228 -0.09365125794033771 -0.06939059130759125 -0.0781699961475584 0.23791850990444288 -0.1145124546032004 0.17671229626807688 0.3312250917074441 -0.03658160049047651 -0.3738381039375857 0.002818238031390894 0.03484943267932327 0.04332419374662374 0.05565145697687302 0.22588875113948348 0.3523319904417697 0.0458256893988289 0.26638260556929205 -0.24838722178495498 0.05540729561364277 0.2043113735323651 0.10836428872473401 0.02877036397273197 -0.18032448813345991 0.003821953400861473 -0.12858156090157405 -0.06725797068653201 0.1668242828945994 -0.09403916624669667 0.09888930921250294 -0.3055643251719048 -0.1810882419789183 0.05564885563544973 -0.06518499675165733 0.12318163320153727 0.06978031264649946 0.09052279019533865 0.05742643382228757 0.02300355760589103 -0.02766619327198746 -0.04405164262833439 -0.05107050291968126 0.08504188159585976 -0.07174392014781329 -0.11895974437164905 -0.1315682585217962 -0.14848510670123244 0.35189514233271013 0.2080656073356673 -0.04373352274119377 -0.17268298554380837 0.16965774308237286 0.03112876123977901 -0.06696401441308407 0.015524603400169534 -0.03206440177042813 0.08366336742160065 0.34036067124316244 0.12333790517550035 0.1257428448619069 -0.2224466528131902 -0.08060288639989847 0.1373091383431105 0.012019212947529173 0.08416906635761354 0.36052619736565195 -0.04158380003537734 0.060886623018955775 -0.18727693550622002 -0.006545171661792268 0.019439994438442743 0.07652133310236904 0.023506015921109104 -0.05141078377329023 -0.15635581522445582 -0.005808276044597474 -0.10984483248350906 0.1778817482014565 -0.20128660720804575 -0.051950600443097295 0.248863785787794 -0.38243123456279227 0.15296843419310463 -0.022127365663113404 0.31166670202054864 0.1597044826842657 0.13186282650489253 -0.07683586700995015 -0.188583984393607 0.10984611596511701 -0.22147158973867437 0.1526033478861364 -0.041278098313145224 -0.2158790424330117 -0.0383905075248352 -0.21628371837801527 -0.10475919618294256 0.0834713745360106 -0.13857102906816768 -0.03236585635485819
century 0.03197162633988786 -0.10122235816968216 -0.06570439183874492 -0.07323256244547469 0.23876855292984364 -0.11981626259240966 0.1773038706424192 0.33085627491228276 -0.036042177662780235 -0.37323294595858075 0.003344779168784406 0.03540511959062764 0.05013195546361788 0.05418647852201347 0.23580346472720692 0.35002269027673455 0.05222426260408693 0.267398553597168 -0.2544635814493087 0.055775879993233496 0.20669041256239065 0.10622228770956077 0.028014776024929897 -0.1853254448742713 0.0019798651195992094 -0.1337286723843699 -0.0697964202721131 0.16563602856914683 -0.09189981303885793 0.1014762138475362 -0.3099045862750368 -0.19380550196377994 0.056286548900738836 -0.062105173473689296 0.12009511803569879 0.0655916481929577 0.09267058966522647 0.05836870403818934 0.025055737025243868 -0.018682743085370473 -0.046870121118242895 -0.04460624942061486 0.08385141290137572 -0.0709797832024897 -0.11824967993632438 -0.1304549872375073 -0.15493375486320846 0.34898195203328725 0.20734570471991107 -0.042003245569479604 -0.17475495989966575 0.17301691424783136 0.03554325312548973 -0.06550993075917994 0.012193127267780511 -0.03536179375473187 0.07483309587782846 0.33674100746002594 0.11365877788172088 0.13031006196506495 -0.2229798931233926 -0.07696566481834714 0.13562483369638542 0.01771196758142919 0.07885316788519019 0.3673727494869118 -0.04098239964094929 0.053980907296697536 -0.1899933923546596 -0.006955423872601301 0.023166426833866747 0.06981368759313467 0.02535296377591689 -0.05610931631108543 -0.16250231188901798 -0.004968839907674884 -0.11129687958442012 0.17621734123130994 -0.19966050835673377 -0.04648650383470263 0.2468859013961694 -0.38138798482528946 0.15434887856899818 -0.022628066901031117 0.3060366378566334 0.15523194070987265 0.13273493175163384 -0.08068123253432163 -0.1901156452445933 0.11462023678772518 -0.2125888599202877 0.15790246265949384 -0.03651485138475638 -0.21027418579476767 -0.03978025599376889 -0.21876524992284302 -0.10504853737149197 0.09101984007408077 -0.13170132904366577 -0.032838070986702446
during 0.02130332013969336 -0.09959321829016071 -0.07715753268486766 -0.07243871572331025 0.2391030729664721 -0.11340326352647083 0.18214597231530832 0.3455106764067636 -0.04072886251974209 -0.38508888757823856 0.0007749531480569738 0.03945499466306053 0.05122722995481294 0.06172591605494514 0.24191582269479883 0.3579753687388719 0.046744558910351154 0.2739122962789947 -0.2587136279851982 0.04447863378292516 0.21218639396235936 0.11118585851663156 0.02945549264448343 -0.18618682363491 0.0024394054187041533 -0.1361514332239942 -0.06385209892608262 0.1750039839301677 -0.09289441549765738 0.1035508961983113 -0.31966208139175456 -0.18616680824715073 0.05231378354552366 -0.07285621694248003 0.1235184298424613 0.07432085106789156 0.09338442538847397 0.06477901289975754 0.027629217010317494 -0.020838460237536747 -0.040600680441643174 -0.047791844628180064 0.09310376424923379 -0.07359115110406492 -0.12805405989736682 -0.13094691705761013 -0.16305025285027386 0.3661755342682948 0.20797514833189992 -0.04149445704602449 -0.176223064844654 0.18151874635297674 0.032361555434616066 -0.06325959553771332 0.015841216773653837 -0.02684771573550461 0.08752033870022717 0.3460850102620824 0.12120445230404268 0.13253884091968968 -0.22512532690492928 -0.08169872504382182 0.13757156086568803 0.01390600579323713 0.08172881045776478 0.38051598424821287 -0.03655456222656194 0.062321004134418725 -0.18928137447156593 -0.004526855927182516 0.02761570021832094 0.07297611617003502 0.026512128046662642 -0.05564296797405487 -0.16260427016906812 -0.003217420401274258 -0.1153737773743882 0.17998510827404168 -0.21478292299390056 -0.05068759145256573 0.25903374199367285 -0.3892216700690873 0.15374133014457783 -0.025101545859370546 0.31653978554821977 0.15520360186864096 0.13796357350020838 -0.08930982910573741 -0.18685553875677607 0.1091880116369808 -0.22590915647953186 0.1641782349239884 -0.03832342485949302 -0.22235497882616065 -0.04358910449396013 -0.21759950263283973 -0.11045428569550061 0.08673239160008614 -0.1431942474972084 -0.027371474024598306
into 0.03090771028958176 -0.09913188881267783 -0.0725212658274964 -0.0784064067083237 0.23583183377066239 -0.1203899447311241 0.17856996242863155 0.340133901883981 -0.040786828664470615 -0.3811936208273213 0.005434760106948683 0.03358930255441095 0.048771394693031954 0.058733986604221286 0.23392302771476603 0.36239713291733794 0.04970742925005517 0.273852295451321 -0.25608798957246914 0.0529565411225253 0.20258506516224262 0.1112165371272869 0.026509810071282724 -0.18130304854059154 0.005674839387712877 -0.13813118652784268 -0.06535627581784113 0.17352163676707413 -0.0991224314859961 0.10369849027523925 -0.3143144733047753 -0.18829190734168696 0.058487043676528655 -0.07300104427707114 0.12798186623499364 0.06866580807835597 0.09741539630533737 0.05769407074023998 0.025083072616948178 -0.016037853073751916 -0.04070772610181362 -0.05380210965298807 0.08964347135811562 -0.07105444959476313 -0.12435113987455162 -0.12908188947735932 -0.1517555905034092 0.3600826843959436 0.20364273809376163 -0.04296172569183972 -0.17979899927172702 0.1667531492847124 0.03479786550590282 -0.06514985744076261 0.012741335899656543 -0.02910867377036027 0.08469081419746745 0.3383928372243734 0.11748833129856855 0.12543236335170801 -0.22717229322113602 -0.08131737836294917 0.13220681390626907 0.018741117897528872 0.08453142788702636 0.36334222219464085 -0.03700093771134688 0.05402529416828158 -0.18676422318768382 0.0008945253095716779 0.024564061383344844 0.07535391010515977 0.022568067756869165 -0.05381111260053284 -0.15642309692222742 -0.006072002354396491 -0.11237422297872508 0.18063281136795326 -0.20994182967612285 -0.050389445775697934 0.2575795524384329 -0.3852800321507064 0.15727921750383433 -0.026847766183825558 0.3165619514576822 0.1604355911202139 0.13487732571736674 -0.07725554071993858 -0.19075900990088873 0.1105029464384425 -0.22093900441012548 0.16023413005743112 -0.03432270513356744 -0.21368998160099262 -0.036343649936348144 -0.21222234091725872 -0.10604439934165982 0.08591683869093293 -0.13150931961117937 -0.03189163051298656
republic 0.031418962495586525 -0.1002685979914899 -0.06701422462544908 -0.07120905314807298 0.23850461587522098 -0.11398797046786367 0.1808905640320297 0.3456190119683522 -0.03713732240432341 -0.3877374057173699 0.000877810057463655 0.03790798993097566 0.04459378870493954 0.06124080772085307 0.23278790477968067 0.36434221254509674 0.05175990987836177 0.2772513926374535 -0.26053798305934894 0.05479777511647553 0.20683961147417237 0.11366956761480443 0.032861105406728604 -0.18214053643407158 0.007635255353991604 -0.12847101733279892 -0.06317605573478738 0.17163579887085237 -0.09891958513445598 0.09930539182786707 -0.32167321412012084 -0.19062874651109035 0.06097075524740831 -0.0718782472010897 0.12169288247961157 0.06978864246755716 0.09994496083217291 0.06565063199567067 0.03290339963919026 -0.021860775625579015 -0.04170946539891402 -0.05415721056937029 0.09041179526311943 -0.0759233755016655 -0.11603568598869454 -0.1319028707340016 -0.1558899717316569 0.368095398420036 0.2097088829298281 -0.04017326645292477 -0.1815086780627743 0.17455183819251058 0.028686157259896095 -0.07055227122853965 0.013129742095522461 -0.02538627318694062 0.08022070746460205 0.34071526611458863 0.12061372326891004 0.12951432619782427 -0.22526570913602972 -0.08172905368755114 0.1320019821162909 0.01610160734128804 0.09249898254241318 0.3755175514081596 -0.03864002420790886 0.06854111465039403 -0.1855213666146569 -0.004415561219516557 0.025931501802165777 0.0765132058620998 0.024745440446801163 -0.05087690845144066 -0.16425943176288282 -0.007433583739562961 -0.11490735638431955 0.17556207185447856 -0.21584806934934847 -0.05145388009967246 0.24747396919431983 -0.39404327487745955 0.1474982992917863 -0.02312652110902167 0.3154779835615954 0.15566042873998315 0.14352934975063444 -0.08061470601273606 -0.18581926577197042 0.11646912443897052 -0.22584565220739616 0.15817102518429496 -0.03323269508087725 -0.2152377982706653 -0.04829625198873941 -0.21738545772213477 -0.1030318369019696 0.08915785993164775 -0.14458102860241598 -0.02598861935748522
china 0.03224961790121232 -0.09889316279702746 -0.07329855534279067 -0.07957614630695437 0.2446692732884882 -0.11253459497644464 0.18027051641361372 0.3395051613732906 -0.03882913564337211 -0.3825970150306523 0.006610258688370389 0.03956697402510142 0.047971504255856244 0.05742512675776521 0.23656511659866672 0.360659510711588 0.04621074117641842 0.27723184373323745 -0.258731344817143 0.046334980829136306 0.20517653457997073 0.1157924595784032 0.025545707213671418 -0.19279623797924542 0.010086006212139738 -0.13800398140814216 -0.06878297990029537 0.1744152094592573 -0.09812866317647627 0.09852630792811869 -0.32012199174564004 -0.19429108002964884 0.05891260445785489 -0.06629599524125167 0.12945733787642139 0.0716837236024777 0.09973915569834856 0.06694725691181334 0.0326429015665489 -0.025386644111904347 -0.03857417890854566 -0.052011535071666386 0.08817078949571751 -0.07104990236153953 -0.11950089203771791 -0.13229498600249168 -0.15241306857510004 0.3613452208709028 0.21303318792219883 -0.047069345952081974 -0.18235722492375386 0.17785406770263942 0.03425717927070625 -0.060067963472767695 0.010502795448111576 -0.02475219877122996 0.08157815237756881 0.3465577053357561 0.12579358342939406 0.12967446164184487 -0.22395505015058084 -0.0765927219978988 0.14230960486665106 0.011878411037007142 0.08489823844717491 0.37679855754491876 -0.036474969710577426 0.06336357491773792 -0.18489621545649276 -0.0076485063153750735 0.025807860481751977 0.07737490999323297 0.025166748654145855 -0.05494164790269163 -0.16188711416517396 -0.006997101277754506 -0.11259491479228556 0.18063239373116985 -0.2113759956076009 -0.05596333344160834 0.2517605049849172 -0.38974071235712476 0.15149457062664498 -0.021326376882074248 0.31511601645865467 0.15673961399231598 0.13972285402310375 -0.08352356276963077 -0.1886675620390677 0.11278202715210661 -0.21996342265029853 0.15670960231682224 -0.0410925816717451 -0.2210995607394027 -0.04049830711081378 -0.22305747687013794 -0.10743529246296248 0.08850693002844326 -0.14047519377827813 -0.030522392618431083
one 0.02909806229084378 -0.10011757813793298 -0.07008275048297391 -0.07866646912784951 0.2393467150616408 -0.11166753260193932 0.18472515020136618 0.3452346040877833 -0.04372750801033297 -0.3818573036962266 0.0022847680991297118 0.034852253455581 0.05427003690686699 0.05662310735806237 0.23820166351613814 0.36468634676235484 0.048664183922690764 0.2744930706505658 -0.25015664559331435 0.055871231976647104 0.20108255227993524 0.10740926517149464 0.02614912929171923 -0.19157031901392466 0.006232432464464861 -0.1405565088274943 -0.07149131106171949 0.17730480223557216 -0.09545361782066192 0.10861266547101898 -0.3149696622895255 -0.18728953930443626 0.056066663525796236 -0.07251469496614155 0.1252079092056455 0.07645096843094826 0.09346502832318125 0.051622996537829514 0.024604327685707753 -0.018659682962165105 -0.047275786168362484 -0.04737585979992416 0.0898989955917301 -0.0664216380207653 -0.11893953927145184 -0.12465088896415741 -0.14982563192058487 0.36584217024762244 0.20695086956341965 -0.0475189360361722 -0.17421215556828717 0.16403269505936582 0.03047728213881839 -0.05895097121802768 0.017647224778485276 -0.02601768648078664 0.08247433392330251 0.3485631338777926 0.12187656231194306 0.12900434174173256 -0.22682448162510785 -0.07960732209549352 0.14285637317158545 0.019048139463725782 0.08215213626670041 0.37277495876821026 -0.03717173722201594 0.05241537784101852 -0.18749834723681555 0.00035378353148373033 0.02070337898355695 0.0784056916125123 0.019698279284886547 -0.05642002887708388 -0.16732724634424517 -0.006334728417643417 -0.11185155416095195 0.1815536465609325 -0.21130228150865715 -0.043692841280662476 0.2643731944760283 -0.3896849166090926 0.1609484386932656 -0.0281333961823721 0.31341522906176383 0.16253521312247118 0.13714750096512682 -0.07880451075584032 -0.1929768119569705 0.11299360229985626 -0.22478594099399177 0.15984043544144289 -0.043306848417365 -0.22412859802927068 -0.04181487567562777 -0.21980282423477093 -0.10736386850107556 0.0863326366886023 -0.13283280669774028 -0.023151770576003167
system 0.027765803340286166 -0.09993152107570928 -0.0736393645684672 -0.07697093819395365 0.24356722603410952 -0.11816271878384778 0.1785571244932414 0.34314065245640407 -0.040299351217009186 -0.387046389331719 -0.0008495527214021743 0.04058704380441693 0.049064689119908904 0.06015601716329581 0.23520618652726827 0.36779550294883695 0.047666492753820566 0.2759262006110318 -0.25613489089091085 0.057626748038043074 0.2131926037511937 0.1078669086909556 0.032847342957997044 -0.18682827600129212 -0.00023004034532237918 -0.13494315059048412 -0.07425908667989654 0.17758108595280572 -0.10147747000166672 0.10935264477773345 -0.32355678586665876 -0.18987563477395078 0.056387590150492814 -0.07662268812455131 0.12335459236692697 0.06783188860711428 0.09077097099425274 0.06272187621359793 0.0328154134423821 -0.022244002367721016 -0.03855463393290805 -0.04456483613022991 0.0854291726851155 -0.07387516786704676 -0.12298585142626706 -0.13243030409174297 -0.15868840574791798 0.3710876248769966 0.2140832426895431 -0.04308344962313973 -0.1801906658183754 0.1751568033636407 0.034482724071086435 -0.06599047929607163 0.011964012410977826 -0.03167811291923827 0.08008323318275876 0.3525142541644357 0.12507573035567685 0.1348481120709926 -0.22786616840664947 -0.08289923982956221 0.14485904938414082 0.012948541236905009 0.08085933668426334 0.3805369223387487 -0.043552338747695644 0.062496501105683326 -0.19208302685728562 -0.000915554516156745 0.02252390914382877 0.07552414176080716 0.026770161690555443 -0.05737847096808173 -0.17035071291321924 -0.000836504286384029 -0.11006543177716152 0.18430622924980408 -0.2094031119917404 -0.04764000571334958 0.2551358828154518 -0.39052475670891806 0.15804328055481337 -0.0260989396965608 0.32630990764664725 0.1612236381944747 0.1434703775193152 -0.07917870454168756 -0.1896507444020893 0.11771028446931002 -0.22596358341076514 0.16213321747910375 -0.0371373912772143 -0.22076065214603502 -0.04588575534211195 -0.224173925104457 -0.10498000493930777 0.08419456592079815 -0.13428772106782136 -0.03217633689570007
not 0.02491224655810567 -0.09657427268781378 -0.06962214864023814 -0.08041852664869592 0.24117654802441102 -0.11339019626407815 0.18239422034192973 0.3429565989345741 -0.03615326974994095 -0.38352914210203737 0.002546179250891984 0.041165504062221914 0.044229183996339204 0.05993852257357705 0.23501567814908755 0.3650769030626127 0.04913469388495854 0.2753380204424262 -0.2597972491788711 0.05020168344588719 0.2128143064206364 0.1092439988799818 0.03387188746243604 -0.18530185571994726 -0.0013485881146947532 -0.13159776558879954 -0.06639823602513527 0.17853448225086102 -0.09126988691662788 0.10672339948662168 -0.31871277140835486 -0.1871612338972542 0.052134489812339695 -0.07468072060673113 0.12631249220445415 0.06943663508034519 0.09610545500205363 0.058673104693131035 0.030997710601123208 -0.020384893010055746 -0.04242818889701494 -0.045790815464326125 0.08403890938308811 -0.07260950110507859 -0.12382126399857737 -0.12708059241845399 -0.15966200429865396 0.36040166611644553 0.2043014185564277 -0.04494449458536276 -0.18212405922582386 0.16763034993483295 0.034413303766722796 -0.0634269151950399 0.013680340167412694 -0.03315924229179106 0.08308480340524933 0.3425501000774405 0.11725904228431185 0.13613228767154087 -0.22751658982722522 -0.08010272664467226 0.13649503960327783 0.016059323849898482 0.087137660175049 0.3751323814942117 -0.04021848371369941 0.05904299737717026 -0.1878034745175111 -0.0002934995809621107 0.021396148009982678 0.0757203758557858 0.022892961569858556 -0.05528742235352515 -0.15889420593719786 0.00014547848493472724 -0.10552131429045392 0.18224401950503377 -0.20561850769715945 -0.051670614362954934 0.2538765139926693 -0.3916989455738437 0.15844422650597595 -0.021099486410247306 0.32372765925456426 0.1590334023885319 0.14183016193515252 -0.08403882570425318 -0.1914872286645562 0.11700315303791377 -0.21815858421515053 0.15690833500478357 -0.03653418865814563 -0.213949656182635 -0.03828370065370771 -0.22339309666189988 -0.10773453897073892 0.08463280980096344 -0.13531422545021726 -0.027533379645086703
trade 0.0296677310197824 -0.10441902525150953 -0.07425238835860706 -0.07428717674088753 0.24342253881088316 -0.1180467534916442 0.17914542741022968 0.34579772117439594 -0.03971309593061015 -0.38470521159655124 0.0005672779088450398 0.03534112017152354 0.04580403246181241 0.06475934289307647 0.23874683893570506 0.3643842305243741 0.046038186196510546 0.2832592260766553 -0.2613512447712986 0.0544818972901249 0.21257113920515772 0.11862192639877742 0.026677412487124536 -0.1901913840543318 0.00014046565486995204 -0.131035425607581 -0.07222086452356677 0.1762452197141929 -0.0950172562342124 0.10026093447465541 -0.324644520580955 -0.1880908505482415 0.06295343290909955 -0.06709491803158178 0.1303355665407721 0.07278168618848144 0.1003033278450691 0.05523140451886155 0.03136776706960333 -0.024136905538286815 -0.04389966324320932 -0.05244497967991593 0.08983983930509347 -0.07028471285732003 -0.12601135135525465 -0.13127432121182134 -0.15574633251318362 0.369422790268016 0.20847827952505416 -0.04892568725096761 -0.18287277889186188 0.170781386227956 0.03466531663398423 -0.06894672498030018 0.015392135754346866 -0.029895880429234106 0.08047322816988778 0.3499504266802831 0.12905337679448423 0.13654693077923316 -0.22617490365746687 -0.07618272310790268 0.14065562365556494 0.019322364110333428 0.09100923013050075 0.3751629028229362 -0.04181087100375011 0.05755284169155492 -0.1898588548559399 -0.0026152173648285038 0.02142987178630758 0.07785131054008095 0.023306549105347785 -0.05554537731792806 -0.1620815409298844 0.0022367331649891784 -0.11801009698987867 0.17385677455913295 -0.21808453205164194 -0.05183906466173704 0.2624579288622978 -0.3957809345505248 0.16067645527885316 -0.027506814314746122 0.3193755479906481 0.16346953402208547 0.14191788771578318 -0.08487108213960308 -0.19096128884445124 0.11658166222760441 -0.22986839168089748 0.16098317121926567 -0.042357074269491916 -0.22758461277832753 -0.040341554171266975 -0.22135914635023668 -0.11173508031752709 0.09058284954158703 -0.13529647953604046 -0.02712152058819233
united 0.022076591143538347 -0.09329606461882547 -0.06846473115080733 -0.07680035608858392 0.2267750582888968 -0.1147603603417126 0.17685611550355942 0.3248875326095147 -0.03801784203045374 -0.37029620447401973 0.004442119457423986 0.037122341748154965 0.03988688559689202 0.0586593236723339 0.22462644395298217 0.3505666272258869 0.04992179217774318 0.26826878430187817 -0.24790831074802042 0.04563944995553697 0.195751188067344 0.10720457477508258 0.032597644665755814 -0.18228250862437806 0.007477548461413575 -0.12472464700398499 -0.06501005551903528 0.17113813735507072 -0.09442824366106034 0.09728476525081889 -0.30055638559638875 -0.18006583570216886 0.05713257573312953 -0.06268867459226307 0.12174128326052112 0.06421196281469396 0.08990576413447171 0.05714066536617625 0.028282859778461046 -0.025313775039862232 -0.04429776647239702 -0.05222998995757195 0.08090217664181948 -0.06691689516454621 -0.11083074595570232 -0.1289790778395268 -0.14850409782970153 0.34924604978380963 0.20179019951207458 -0.039216421284842706 -0.16904849988424295 0.1703956123614298 0.03322824472611772 -0.06736832347468744 0.011149185068844823 -0.028095833340158707 0.08214267755779703 0.3320495667826632 0.11849950617597291 0.1210969450281195 -0.21666680244113679 -0.07342578247868403 0.1254615158389869 0.012949340334629824 0.07960933403699158 0.358945846878458 -0.041164639714161406 0.06299682696652764 -0.1802974648858238 -0.00960853714982178 0.026172448504023546 0.07395442492577348 0.019168623836314617 -0.051831002743059136 -0.1560658922168875 -0.0008248299496545671 -0.10434259818560976 0.16592337413922928 -0.20154873913738666 -0.05212939967148506 0.240283304201004 -0.3740433198718618 0.14117357010250248 -0.027322907149959517 0.30659798884544054 0.15100225054748223 0.1332859708821609 -0.07991555115240938 -0.18643980848600314 0.1040058889594146 -0.21675550872180557 0.1536385007106421 -0.03277933632889077 -0.21220403793808018 -0.0406852924413075 -0.21411707241433497 -0.10391520845351254 0.08689324051119544 -0.13287630091010763 -0.02903224064032854
university 0.029060896622186347 -0.09712881044435215 -0.06523038500330461 -0.08434428112950185 0.23741714349357917 -0.1116349447677005 0.18411736739424767 0.33941534244298566 -0.037092388330870515 -0.38803776262633166 -0.0013862192143055947 0.04233325035336259 0.05496846199466653 0.06205855015341675 0.24032700671563395 0.35517340048264484 0.043691461067066575 0.2726579037980673 -0.25280643285101717 0.056114430711964695 0.20798739371613234 0.11388736884019719 0.02963407512045958 -0.18326645396952326 0.00040314692469387134 -0.13882946671697022 -0.07228573474071381 0.17284809951685384 -0.10033643190346221 0.11134162318590915 -0.31546748319248524 -0.18489636719270003 0.0509822686825867 -0.07735787409259255 0.12047382832930993 0.06824423903825902 0.09370455172038926 0.04766828211844831 0.027580889076499054 -0.025029626565451196 -0.04050229059545735 -0.04634212384633231 0.08380212385696602 -0.06601003611054543 -0.1290097844541844 -0.12512468335095364 -0.15536826352123967 0.3652307165768238 0.20526395488010404 -0.0444326898415234 -0.1775308367805511 0.15859789362368829 0.03950090349245562 -0.06523573310640716 0.01709459712444878 -0.03435039494295166 0.08040626530728229 0.34409549882191826 0.11847991375474175 0.12590840092711297 -0.23194596723781105 -0.07493692041627169 0.13557776227557936 0.01969748837009606 0.08260825891592535 0.3656694872627718 -0.04320682670560693 0.057360899204019794 -0.19174660822401976 -0.0022036580619369407 0.0254997826448371 0.07493917606121223 0.02215474473980039 -0.0553797617080443 -0.16956783483712706 -0.011261915551753486 -0.10424969931584993 0.18271701432614423 -0.2014961767128029 -0.04632661263481611 0.264894721380431 -0.3813751356419772 0.16361930284201134 -0.02135811174921888 0.3174582249913122 0.15661047343907014 0.1341112385638568 -0.07724960073332993 -0.19725260775600062 0.11728873100015007 -0.22492018173028813 0.1524432405656835 -0.046776667930500775 -0.22177346104494428 -0.03736929861422585 -0.21163374932638337 -0.10706902259294068 0.07975360417101449 -0.12675555847792358 -0.023797459968398653
were 0.029814982343982666 -0.09445101009003448 -0.07400393366552216 -0.0718402353217223 0.23679792241879627 -0.11656399169756725 0.18087155434778268 0.33476233832473096 -0.03603385415795248 -0.3791000430674201 0.001795987251459771 0.03369461849111803 0.040650298821048016 0.06300527934500652 0.23046560757325277 0.355289404566317 0.05006968661465158 0.2730318402353296 -0.2514356694558849 0.05190070096942544 0.20960059072871876 0.10743485223185256 0.029169280062942653 -0.18682843281654418 0.004294966610192056 -0.1358754409030606 -0.06702666234795705 0.1666324433222256 -0.09515226815975404 0.09931562533817737 -0.3048448640263786 -0.19195882972020695 0.05884048704715735 -0.06582079774221725 0.11818485749045629 0.06788018692783251 0.09383410391875614 0.05414290964220235 0.0310809411489987 -0.019440342427954834 -0.042302499566664695 -0.05172158792440255 0.08535482554907395 -0.07129359475403567 -0.12306360840164825 -0.12747705182030766 -0.15156723948616158 0.3593440921293335 0.20386992203147902 -0.03835285776498908 -0.17284442878731066 0.17192607809440766 0.03616128986017891 -0.061291100020542076 0.01829673431687542 -0.027550811795155623 0.08116491488857054 0.3404488352265813 0.12221523407345716 0.1287767494070753 -0.22267196280483834 -0.08200116225256245 0.13539074899526685 0.01214324612861223 0.08255144204948209 0.36833665188994213 -0.04042683689150109 0.06389127344777672 -0.1886652571124883 -0.008448912107186514 0.025800214257443888 0.07657256655473328 0.030357828909327752 -0.05587372641505245 -0.1604522238536262 -0.007705934821482728 -0.10495927296139075 0.17513781525194294 -0.2064437060636967 -0.051392668647664626 0.25164984790935907 -0.3767584617468005 0.15149599623733767 -0.02403130943347618 0.3154386709487972 0.15922929579586834 0.13903075006638171 -0.08053935153487757 -0.18525905579599483 0.1128029245086889 -0.2191278862805332 0.1585618555253726 -0.036088587216693876 -0.2137900054988362 -0.041854636801624184 -0.21780668475143186 -0.09927459590181843 0.08428399931563779 -0.14132987567719923 -0.029209058675534017
at 0.022302551094417228 -0.10080920634277189 -0.06860799739195646 -0.08172519361660623 0.23591098981025213 -0.11222690906915439 0.1803467095429063 0.33777804859187377 -0.04175625133139629 -0.38215933722299056 -0.0014187869891720344 0.037086345092175385 0.05213950470611482 0.05902716284365768 0.22870118360712657 0.35814544939348397 0.041655517660924915 0.2677816382528345 -0.24309251209579508 0.04840991352967316 0.1970288484126603 0.11338303273879394 0.027229935816369552 -0.18360990343173095 0.007310576092155264 -0.1364995083320307 -0.07156819272858438 0.16521120813222628 -0.0964754274341011 0.10125701689323394 -0.3118603904602642 -0.18396164649466643 0.061388724741359924 -0.07365171946604097 0.1268330344926753 0.07322807510724169 0.09308323374388809 0.056883147500356425 0.02389466459801155 -0.017305183234369716 -0.039927549949996956 -0.05201350705595893 0.08770654887546028 -0.06663245527982371 -0.11786411406176597 -0.12095128851112529 -0.15577662891142505 0.35877919814008674 0.20248001222831746 -0.046834939638868464 -0.175864023837897 0.15939498195037152 0.03728260913330752 -0.06651100673861185 0.013659363923236969 -0.03192428217915442 0.08094217213343709 0.34403439048329926 0.1171373271712763 0.1310808544091468 -0.23094936886079914 -0.07891826248634845 0.13049672679503763 0.011374715016454044 0.07639036280897916 0.3622799942260828 -0.04133408142312522 0.06077241818534554 -0.18472756852019115 -0.003252483973289757 0.01751472896892515 0.07476514919653507 0.016102912667767044 -0.053006825077921385 -0.1594124521891657 -0.007071689937956563 -0.10809080182818222 0.17601018132874158 -0.20841264788204852 -0.04946451386500191 0.2515772945560621 -0.3767631154295273 0.15990417278054184 -0.022594950442724082 0.3171378785639678 0.15457242565068952 0.13710653482201632 -0.08558576885661578 -0.19334384655556042 0.11610019008415728 -0.21570574985183022 0.14964063121673907 -0.03568838223386494 -0.21995113020968324 -0.037414182628979525 -0.20864506177736952 -0.10096076447803416 0.08609873040078123 -0.1380863857778734 -0.02195212301697234
chinese 0.030505139534829404 -0.10137446551543092 -0.0697437033618932 -0.0717971079679227 0.22898098933616673 -0.11321713563219757 0.17763327342960908 0.33198636627448064 -0.04074322975616463 -0.37032136126731807 0.0008437786118639528 0.03811851734861393 0.03963620290408892 0.06048727661192827 0.23375019081936513 0.358705807818452 0.0522759760927158 0.26945914725888925 -0.2537619499074758 0.05277313879907544 0.20805751964414648 0.11095997097467891 0.027373762849907002 -0.18710425363357153 0.007703379118436563 -0.12479220584631362 -0.07082890123962551 0.1687070496551527 -0.0959184391501021 0.09791047669459806 -0.3097671583403285 -0.184655388027082 0.05988362292288629 -0.07045823730522308 0.1269267190566742 0.07276990062848332 0.09361510227309569 0.0639489677665413 0.03282004204949333 -0.0261061837730223 -0.03723013552740722 -0.045684685273883724 0.08625943070568484 -0.0714543205931031 -0.11281516770846488 -0.12611608807209843 -0.1551171911519751 0.35778167120795734 0.20679527585689217 -0.04760344500925042 -0.18016821336609176 0.17370646256214203 0.03267769965543768 -0.06197782851273357 0.008784470101891146 -0.028874814737663367 0.07554666430234924 0.33523056903650306 0.11769014247637005 0.13039028021542662 -0.21859929663647445 -0.0803610282741472 0.13199528658889523 0.01720691539048089 0.08676960809806 0.3643478180747237 -0.037373085604888036 0.06418661319534974 -0.18607292578353604 -0.008675516116345807 0.02053897659788903 0.07738787891909352 0.0211687270414413 -0.05012078358138687 -0.1568078471965828 -0.0016139468177419007 -0.10339978999040632 0.17608440044034465 -0.21028176975141627 -0.049850018252034285 0.2523009273868911 -0.38285297342017566 0.14524793167882194 -0.02627537412228089 0.31020496770153905 0.15547719476523347 0.1383886247411327 -0.0791280916461507 -0.18187680075500104 0.1084730321551029 -0.21232403299954777 0.15745578647468836 -0.032991790412247826 -0.2105643940606412 -0.04609958355210474 -0.22074602161511298 -0.10584567322500123 0.09177489167086306 -0.13950413828449285 -0.03390331148075327
relations 0.028135146024907586 -0.09135011329179465 -0.07432726817712278 -0.07422199421931831 0.23570640805316648 -0.11927052138579224 0.18161007595227777 0.34163634775896673 -0.040187484316555284 -0.37780181853589995 0.0050920695192840934 0.04096698683160132 0.03913529180473666 0.06526883249931867 0.2295995468843363 0.3552489153660805 0.04541725095248256 0.26873760233312194 -0.2553598268275651 0.042413073444651145 0.21304506040482857 0.11279579234282062 0.02406551480984715 -0.1863854541972214 0.008227301281316202 -0.1311666751270506 -0.06230793586148439 0.17334967024453668 -0.09097168765801987 0.09743790644638109 -0.3152557572028029 -0.1866661901885221 0.0561417096804821 -0.07136466616398689 0.11982969436732346 0.06703418643489545 0.10121907321640591 0.06433417871232334 0.033675705834904146 -0.029635292898630754 -0.04152380295618219 -0.045533132811701835 0.08771144260872217 -0.07346507489878498 -0.11881984963433542 -0.12527692718212174 -0.15153474459518196 0.3569530214454517 0.2091037634680856 -0.044302664814480114 -0.18049196581770804 0.17838733212683394 0.027798733074257526 -0.06372492810341804 0.011330318685251566 -0.030619760892312897 0.0841818742005521 0.34045938300928524 0.11891641489755661 0.1256241560071762 -0.21958880469716402 -0.07901660822306449 0.13087997505325677 0.015946170633462906 0.08729294082423807 0.37008439828849204 -0.041190073720205375 0.06662402835315842 -0.18722122510367026 -0.012612117945163254 0.026088860223079973 0.07809427688291158 0.02563189974490112 -0.05605379425365645 -0.1631764279342367 -0.004870457260494756 -0.10765970061604509 0.16832499340746243 -0.21311201652287948 -0.05047528053838212 0.24395238252981288 -0.39001988854976 0.14435815774637722 -0.017960223239035567 0.3110446575267315 0.1605042809386307 0.13421741592386452 -0.08044010100542422 -0.18547369083001386 0.11177100408465383 -0.22046477644220322 0.15549755409071886 -0.03212749898296557 -0.21481824592410612 -0.045201088099492706 -0.21120672289712994 -0.10139841713536518 0.08814877154511212 -0.14251148406240902 -0.03321894515250142
states 0.02689346525533534 -0.1010258336822563 -0.06829199785006487 -0.07930725501331326 0.24012548549624166 -0.11697831331486297 0.17930163635074328 0.33488673981345873 -0.03326476549548413 -0.3767829064251594 0.0009868985899009444 0.033880082639532884 0.04168406926986144 0.061672887985344725 0.2301579678319307 0.3533818212482355 0.04861396296236859 0.2768047094952773 -0.2547098707331075 0.04911761670535142 0.207925294716386 0.10974727802443127 0.02885818274577749 -0.18762374330230505 0.005514523604976389 -0.1302643667785631 -0.07070477298566971 0.1708911462849756 -0.09885236459602563 0.10495423897149234 -0.3143199250907658 -0.1924440463177727 0.05830412913581614 -0.07260508459703612 0.12694403578632762 0.0653338219157065 0.09345495016688121 0.05854209358108 0.022348320426895555 -0.023119219770357753 -0.04339653475043648 -0.05186853748420561 0.08797247792292136 -0.06491161872858484 -0.11779916913394965 -0.1284227134386134 -0.15475357394526285 0.35937387950688005 0.20847657231978306 -0.04366078595339391 -0.18073886416279364 0.1704671403927219 0.02922142680824102 -0.06770371378017194 0.00854417930845755 -0.02656534122097826 0.07703201707389627 0.34494885905043315 0.12346916813270312 0.1275014417735162 -0.22605749662713512 -0.07432974825219561 0.13898219921779661 0.017988671036190475 0.08577780070485327 0.371740150659689 -0.0439895903161188 0.059529592899740344 -0.1836056564008471 -0.007724150362399991 0.019709311244887076 0.07678423031792246 0.02596838461987999 -0.05587525102904082 -0.16332013437197232 0.0024883979336430048 -0.10713860492815584 0.17680325337434175 -0.207189885088852 -0.04704458367425755 0.2525178401461621 -0.3867621236545882 0.152956143279327 -0.02947981059228682 0.32017103244213346 0.16143972867039885 0.1313733832611202 -0.08559684876035313 -0.19127576766327972 0.11591357800978443 -0.2177317972257988 0.151555694102018 -0.04121267511586898 -0.2197995444122326 -0.04340400427630984 -0.21769727208979617 -0.10236165820408862 0.09307320799253814 -0.13727011831115293 -0.029232929776752722
th 0.02835486912235522 -0.09806462232671678 -0.07350956043386533 -0.07739496303958712 0.2331257968692554 -0.11660185333388924 0.17810085159755773 0.33229669484215046 -0.041097218891168665 -0.3711777786993396 0.006316667568947776 0.036859163717196206 0.04726576910000348 0.0522194722203158 0.23314365674789758 0.3468205722117093 0.04279812316147638 0.26520359817304806 -0.24793196480465382 0.05233761690629775 0.19837219605853632 0.10816067821438613 0.032637606354838415 -0.18182965660966927 0.0009855347878702958 -0.12956284686743308 -0.07065967576861544 0.163444920334353 -0.09322880276436453 0.10362936911550431 -0.3082339814535012 -0.18941653906557657 0.052270303099994565 -0.06863733598466575 0.12493766188110308 0.06930379564485295 0.0934588984149151 0.058502726487882656 0.02882843918920138 -0.019706358706956847 -0.04641673147433068 -0.0461030556265325 0.08301560744117133 -0.07079534738830527 -0.11551460252292217 -0.11989948401390416 -0.15244780981409575 0.35294305004457066 0.19815253409473524 -0.037439795574667895 -0.1773404243084137 0.17085737396368722 0.0316760359790246 -0.06104679852473574 0.009072547577997185 -0.030453274809411807 0.08028398350753468 0.3310961132028082 0.11932550364848549 0.12148809125092265 -0.22378220445865932 -0.07968040879588048 0.13090449323580036 0.01393651550434289 0.08119448996525819 0.35376534460571823 -0.04497467403797831 0.05809668458882628 -0.18596132991783887 -0.007739750120469248 0.020873578525945846 0.06932176817237362 0.022858149778008832 -0.056632536964591466 -0.1573697570336613 -0.0008201769676705296 -0.11299010214064528 0.17155829521573157 -0.2038680725020958 -0.05123026199613371 0.24122745041611365 -0.37363516088470555 0.15147744821878936 -0.022858634937133235 0.3106028037718608 0.1571192151735378 0.13399435493237372 -0.07996576944174645 -0.18849857950816554 0.10322101304754072 -0.21132416627803466 0.15787008402037803 -0.03654253999255484 -0.21133516083699366 -0.040312145818816904 -0.20883435719416413 -0.10423500005856408 0.08216697051343129 -0.1351589274665308 -0.03187862011321817
which 0.028472634983710002 -0.10392002029583147 -0.06651263894736412 -0.07516855120394278 0.24011610885500645 -0.11180323391080951 0.1781730408785084 0.34163962375063994 -0.04321189576277161 -0.3743723867799561 0.0030351299938886733 0.04064404384671178 0.04482467066293751 0.0567607710394353 0.23577778277716435 0.3609402684381255 0.049187993283144375 0.2759767433526894 -0.25522062367329773 0.05235683942378668 0.20192735185263802 0.10834939508156187 0.03302977342828304 -0.18050351419397764 0.007314077602466058 -0.12990380980828425 -0.06544003838778648 0.16738747433392273 -0.0937565530730163 0.1086051033621077 -0.3161437003598088 -0.19073839311312468 0.05368979548945398 -0.07000306884559498 0.12569268481489773 0.07327332501442058 0.09213350053432107 0.05756015526032879 0.023998580176000477 -0.02624346649708249 -0.04345869190432029 -0.045062807465638885 0.08184117026922666 -0.07139951222756027 -0.12065712005700281 -0.1269328867642709 -0.15195367831699594 0.3560275247128985 0.20654055348698336 -0.04345503954924478 -0.17199274922034138 0.17256360984623592 0.035356795085293234 -0.05895634805261955 0.013190258181295515 -0.030127200133681493 0.07762686168986631 0.34362688528739 0.12577838478055714 0.12947821525970518 -0.225382859876321 -0.0790273964612527 0.14020901754116558 0.013321916369782905 0.07843979969338809 0.3707608203257306 -0.035686458934701654 0.054723433450106385 -0.19103784590879436 -0.004031773401615316 0.018270364171895002 0.07413543915177148 0.02032969963031369 -0.05950634133440724 -0.1571164194881574 -0.003652232772276163 -0.1125538699394337 0.17780140150494048 -0.2042153970025113 -0.05195420123001543 0.25422445215167877 -0.38418512223921686 0.1555829697594108 -0.026183657072711128 0.31719048472331807 0.1520134907265213 0.13658971651809282 -0.08030454859505667 -0.1915970476486706 0.10824506379719102 -0.21488865327567702 0.15966943212998325 -0.04065758933394288 -0.22040794649349182 -0.04568154197662726 -0.2161949321189817 -0.10426686452565807 0.08931920560803655 -0.13055554305322659 -0.0321707895754346
after 0.02265766309965945 -0.10573340926746036 -0.07464595129125383 -0.07289190813244698 0.24311255982059352 -0.11287784314215754 0.18905791128514912 0.3434910966085753 -0.03821536623299616 -0.39619471538271345 -0.0022710582222163207 0.039359614808926156 0.04460832087888025 0.06491578762954607 0.24101994377872238 0.3661009147119632 0.0518768044719329 0.279747343686642 -0.2652223488571293 0.04703984017527826 0.21563228467751394 0.113862036906046 0.026949783761443635 -0.19053168456001338 -0.00017708526887068028 -0.13953405266268445 -0.06604490458748871 0.18013683876385775 -0.09749723594674187 0.10592691994591487 -0.31837559271333754 -0.19064295307125034 0.05688755993800087 -0.06852970501942182 0.12431415634777503 0.07148876408325763 0.09657319726405728 0.05580875739326616 0.030254134286437587 -0.02617299751883394 -0.03817386510243013 -0.04939018987200121 0.08473115532412462 -0.07895332577995218 -0.12305171248090101 -0.1337355797961561 -0.15937540524105764 0.36697159232433657 0.21021757714299158 -0.047135774748222385 -0.18226196659906505 0.1800249077448582 0.02870729558905513 -0.06640283352909356 0.011196562987461451 -0.033018615741368766 0.08506704645074117 0.35517422327585485 0.1259035390875008 0.13576943558880794 -0.23558658164596621 -0.07588978825187771 0.13569663836886245 0.015987591718076576 0.08608753158938486 0.37601467997722937 -0.04492931653096015 0.05618863679759133 -0.18939198849060238 -0.006897508106565877 0.022321569164203012 0.07459588456828782 0.020643735016299257 -0.053541185555543054 -0.1611087018612344 -0.004571258777776274 -0.1188962566167496 0.17807121943885731 -0.21472096335196247 -0.05479716476929348 0.25632217459894957 -0.3896484677628281 0.1555452423128456 -0.02124036797503616 0.3279881831436175 0.15869663085989577 0.1415262440858411 -0.08293681565444447 -0.19195172105538919 0.11491327330147205 -0.23104284415307147 0.165936871619508 -0.04066730787855955 -0.22765396546423425 -0.04435385289887352 -0.21882367630802363 -0.1138801666905287 0.0860954940401527 -0.142683499019772 -0.03318964669952771
an 0.02415487436997943 -0.10205167105998844 -0.07393390224858437 -0.08297406800196358 0.23618712960546215 -0.11319212493854934 0.18161361892265415 0.3403318396708579 -0.03713652628004575 -0.3890142093647113 0.002636267810355306 0.04090318099730476 0.05056934163925407 0.05677353496790899 0.24074466139870793 0.3622987316897082 0.04993670766029431 0.2809019741100012 -0.2524034442575076 0.05652738940413102 0.2122233928087006 0.11323342891495676 0.03110581918413683 -0.18485239538655404 -0.0025268258375070744 -0.14214443849675665 -0.0689014629084943 0.17284252503734257 -0.09977566828173905 0.10854892602945973 -0.3183388473489945 -0.18756045854830952 0.0515979278149661 -0.07043413174071048 0.1305400495884992 0.07137126796061417 0.09174990398384611 0.059348998099202854 0.031125519297469692 -0.016581125268663892 -0.04318248317866671 -0.04642765314816517 0.08456982176968028 -0.06735203874771706 -0.13034123624849164 -0.12393738490412246 -0.15756440345447356 0.36288154894416397 0.20221624851962475 -0.04883525500779994 -0.18587587131831781 0.16635944120905974 0.03237099746541506 -0.06314353319335893 0.009799661285783601 -0.03459166078816304 0.0837535535362855 0.3521902066096735 0.128033125557967 0.1370642816491877 -0.23675612530658605 -0.07832749072981063 0.14215727823479785 0.019107363630783265 0.0889373109065948 0.3720085815965136 -0.0450121121533979 0.05165928624332138 -0.18643825075468878 -0.004607520834095969 0.023299615432028273 0.08183742890502031 0.020999127328913837 -0.05673065044905823 -0.1632716742149939 -0.006653870802530048 -0.11477556917910647 0.1793262496508058 -0.21060931433961982 -0.04843939443449558 0.2646839104856415 -0.38656080201887055 0.15879362437702182 -0.019973166398218042 0.31903366397307314 0.1586048018076694 0.13815139272964927 -0.08587687388379724 -0.19758170550829074 0.11833206869332735 -0.22164515674782506 0.15565051471331762 -0.03639404786391038 -0.2252531532868934 -0.03615964239656738 -0.2207429277619057 -0.1054021646173381 0.08949731876097258 -0.13628487978332668 -0.023227620963555656
high 0.02688338051165203 -0.09708672934814158 -0.06491137335478367 -0.07512141311497393 0.23737846638721544 -0.11219601852956584 0.17664037444173356 0.3309159241681719 -0.04501817321936419 -0.3751888098971032 0.006310592196802239 0.038903528153088465 0.05074983982511579 0.05331460710428753 0.23696931429459114 0.351601795899453 0.04349926407236147 0.27001682203658484 -0.25181709485246656 0.054829755350328316 0.20155981983699164 0.11198031504602934 0.03437601115647796 -0.18734144717099527 0.007264902588493308 -0.14002020828973344 -0.07131652294374384 0.17245193323520494 -0.10051303593557075 0.10113625683988292 -0.30878380615814327 -0.18942310346912097 0.05675448502337613 -0.07161295036533713 0.11593555023352599 0.071554436338783 0.09236667317663835 0.05724548490498804 0.03204610671388014 -0.017581182548657516 -0.038292456837108524 -0.049501520767370494 0.08365596622788034 -0.06921442747332504 -0.12248093950698533 -0.12605011466988605 -0.15407329589338314 0.3588558334496851 0.20325482988252255 -0.04356831676386661 -0.17433285063086407 0.1600467900748881 0.03453495665295363 -0.05870193869447847 0.01290134097305675 -0.02547634538190728 0.07737729613714485 0.33599138810699214 0.12101595854446791 0.12785685882175596 -0.22164044282624218 -0.07759325157262915 0.14179993186802778 0.010444311576740561 0.07780850479366899 0.35792913454619196 -0.040536010801700446 0.05523798526888322 -0.18703758684228278 -0.0032697145300063057 0.020190767643553747 0.07929066160633932 0.02428926281524674 -0.058522966792756766 -0.16362808119032576 -0.00848657896919788 -0.11070595855721238 0.1791933259155506 -0.1984282735048175 -0.04395455269738266 0.2570424605822561 -0.3788851729984591 0.15909059014280147 -0.0183348241046448 0.31439294860508393 0.15779943596328605 0.13564430482672132 -0.07710736403086133 -0.19244285797865873 0.11230838543117229 -0.22031284225655404 0.15540420780419983 -0.041575695170536636 -0.22067889095599316 -0.03394193144273311 -0.20689350540841456 -0.10435731895141294 0.08720184241354104 -0.1264414090176077 -0.025028375651211184
most 0.031343063305858614 -0.09772166141950653 -0.07430035138350027 -0.08130392967895513 0.23896479368180323 -0.11070498445355742 0.18282047722191339 0.3389246587626326 -0.04066590428140293 -0.3909361630692698 0.00618949704329918 0.040068302290852495 0.04512791572137378 0.058063832306615715 0.24403978384237143 0.3573656357133427 0.04986585315226548 0.2766810074975377 -0.25763242957389565 0.04814380839761627 0.21080917347376504 0.10547312588732637 0.0306888809435957 -0.18515097983725815 0.0031882441451072806 -0.139934522907781 -0.07290559418875833 0.17030809995351393 -0.09905830483722679 0.1029048095880401 -0.3213620442520138 -0.1976525833660833 0.054386158816247955 -0.07242699043899038 0.12333890923174752 0.07106977627879241 0.09290103227672991 0.057248637850881225 0.022967657195172145 -0.023329857294022743 -0.043778130945913006 -0.04692058131107317 0.0883501463975965 -0.07685026602698988 -0.1277864791458363 -0.12659017081304458 -0.15141413808819124 0.3692067128211166 0.21103587507317345 -0.048082075814259176 -0.1773357291793789 0.16877374308951223 0.033601636703309755 -0.06391464373104704 0.01812198569917776 -0.031626810303061095 0.07894553938572768 0.3460723579523747 0.12567747061958176 0.13709447453949178 -0.22954374127729846 -0.08378173259397553 0.14574700412845917 0.01885779508804096 0.08657789703849626 0.3700083634387344 -0.03825930074026552 0.05236119347735481 -0.18798866686041732 -0.008707767453678968 0.020238256932683742 0.08060248979274759 0.02749818761181737 -0.05934660919592547 -0.16246029999983255 -0.007717059477643941 -0.10742368200996769 0.1809475234998676 -0.20999516545812513 -0.05099565369599908 0.26308519276434383 -0.3924983207287624 0.1573794342707207 -0.027669043426538902 0.3156918593568676 0.157762450861939 0.14162862121254696 -0.07852493777091041 -0.1950277842473341 0.11344496462615501 -0.22228821406895055 0.15928722926211417 -0.04169103169319682 -0.21985305739035282 -0.0435137948768166 -0.21820737570383683 -0.10619960011155344 0.08699511637792824 -0.13039343166376777 -0.030444896154714268
have 0.029200318830427733 -0.09593779856869368 -0.07081597107956057 -0.07354899349117817 0.2366418793361992 -0.1087610525395887 0.17653095431983687 0.3381093641089989 -0.04253051860582897 -0.38279682780922375 -0.0007082366913298037 0.037650292894234584 0.04810129843812328 0.06412563640788842 0.23704252741889437 0.3505939833849592 0.04524866892579886 0.26617167084537285 -0.2527788041184989 0.05428034057158357 0.2023438736157757 0.10994334263148903 0.026006886481626003 -0.17938312003663023 0.0005696869660362414 -0.12910070675112925 -0.06430250016157839 0.17053208883552468 -0.09932722019765781 0.10738837218299627 -0.3099342027641148 -0.18734645855958043 0.05365530814893664 -0.07360587671327962 0.126098877673428 0.06755166608502072 0.09097140642462916 0.05244064146320495 0.029672395625620327 -0.024114942986685213 -0.04687209020179374 -0.046091398328014815 0.08350594444645537 -0.07289156340488233 -0.116431263347016 -0.12573102612220613 -0.15035542724163284 0.35234434198426307 0.2088472715038099 -0.0410348163097992 -0.17648595391523034 0.16346881589030499 0.030704866778368776 -0.06612534393086036 0.017109191242674057 -0.025859261849251858 0.07628112485791348 0.3358318458886365 0.11525463758731094 0.13054490819050818 -0.23041294492477007 -0.07518697040843232 0.13795051065028013 0.020192465142994123 0.08408201795515699 0.3672590896420697 -0.045320081417343845 0.05485310764434868 -0.18613499491651886 -0.008073035620393729 0.01855325529859763 0.07727606098092327 0.026385620853772513 -0.06000090960928796 -0.16537240788486332 0.0007085141947067659 -0.11082984765838805 0.17816867822077537 -0.2021446573213531 -0.044795356615267116 0.2487149974195335 -0.3823358518776756 0.15680284265507766 -0.01960110359028412 0.31505326865513644 0.15746253658438555 0.1386131277873083 -0.08460859720190803 -0.19310921457629454 0.11703055551402854 -0.2147669814473266 0.1583666949806949 -0.03683763311723931 -0.22152256031680317 -0.03501552527849573 -0.21329813577624 -0.10861494981746148 0.08263667941646832 -0.13042556661746094 -0.026508107018650497
it 0.02911642043651599 -0.10022118593703043 -0.0726786384275804 -0.07265740550239912 0.2274009312530783 -0.10837157884079614 0.17395358499958993 0.3290733973744321 -0.0417644520944342 -0.3706624031618092 0.0036191262986606542 0.03627635656053646 0.044944853917859906 0.061064957678349525 0.23044227310386206 0.349494091481829 0.04708677263291798 0.2673300618429544 -0.2500676312801355 0.052766227714685636 0.20234807433626992 0.10336481028886435 0.0278140176916204 -0.1769573386122056 0.003971658996249423 -0.13033051572225546 -0.06352578653097374 0.17049138566684865 -0.0918553174342976 0.10416798224800089 -0.30858275796336804 -0.18482499483320033 0.05595793250716044 -0.07119859845408433 0.11596382405796953 0.06599052919078123 0.08887961203527218 0.052426411706472026 0.030920183975585852 -0.02240588509103734 -0.04585604770209193 -0.04687756502369588 0.08608645634011203 -0.07589174520249525 -0.11285980239795289 -0.12832180480576014 -0.14918673019471687 0.3488983320776371 0.20385456299485885 -0.04356986301534043 -0.17605029826302546 0.16206623167453166 0.0295117836006192 -0.06320859402375001 0.012971094738899746 -0.025625339419599633 0.07603997991376113 0.33112384366823155 0.11592942105116025 0.12811619474694347 -0.2212908630097133 -0.07806455939029161 0.13082216742482403 0.012232086791866374 0.08330345844790149 0.3574736198355376 -0.03882263238000675 0.06169527857365175 -0.1796086076865239 -0.007726165076057888 0.022055308935096305 0.07057651107128715 0.024897719340118148 -0.052294863355101515 -0.16051013744231069 0.00035099305662142084 -0.10932791084818065 0.17541964772931293 -0.2044068989285131 -0.047797472735877616 0.2492893164699937 -0.3689111709477249 0.1533574903072608 -0.024677984946751504 0.30364925304968 0.14891699557088303 0.1275515952344741 -0.08383719348366261 -0.18018321280042518 0.10829403948377929 -0.21661347296994066 0.1532496933271188 -0.0361177528112867 -0.21401298001342853 -0.0424939674935181 -0.2069014186219379 -0.10757607057501187 0.09073406655895903 -0.13828322174175697 -0.02633913945228208
japan 0.02824250732124045 -0.09870728066914591 -0.06939827544715357 -0.06903279652748523 0.23644875168492713 -0.11261695415281772 0.17651854334150488 0.3334527826175415 -0.040336944975067505 -0.3749650477302612 -0.001756855281090941 0.03659230160737521 0.0438013544330349 0.05970098680905644 0.23448988085908773 0.3508670917750381 0.046420027129764924 0.2736590915007677 -0.2473859769479417 0.04452595530432982 0.204185360628989 0.10571986587310143 0.031872004539917585 -0.1794172213718926 0.006489011035623185 -0.13121157891863192 -0.06293178225308992 0.16975533885471417 -0.09703028632204792 0.09734318773391851 -0.3051155863575921 -0.18090534136509495 0.06059929283521471 -0.06752766028732557 0.12413641020292161 0.06911735452630549 0.08967010222614016 0.05737331760906635 0.02809746372428973 -0.02528649087752501 -0.036177950759208904 -0.05279469052436215 0.08259333987664515 -0.06969489473108915 -0.1147261959662775 -0.12301575599135782 -0.15920491248419932 0.3581231516234962 0.20181636408836523 -0.04062241995326214 -0.17352398976629457 0.17550548342873767 0.035373497748562105 -0.06290243742374721 0.012836604695421609 -0.028252138503657973 0.08626998080114223 0.33204227497305105 0.11972414421859717 0.12584801755126562 -0.2213215617581892 -0.08225927297945326 0.1333599464409933 0.01043773976339902 0.07965694443056436 0.37003070577711294 -0.04082971915688873 0.06437398565434099 -0.1869640921844739 -0.004856633135585912 0.0241838573888415 0.06846140376866734 0.019184144326337055 -0.057936312907399354 -0.15546967457911878 -0.0010573533189421028 -0.11216733888940895 0.17517280677372205 -0.2065164163939268 -0.04601148206661094 0.2433630442448055 -0.3843111907458875 0.15123967280902767 -0.020678152703181088 0.3161265907173003 0.15223827435045945 0.1349095184453631 -0.08386988251676562 -0.18585716736608204 0.10694966329648119 -0.2213018651888593 0.15722610805500017 -0.03461285421483412 -0.21357781220885533 -0.04165524297321884 -0.2127911478116094 -0.10554019495807934 0.09285660348372764 -0.13999156118652684 -0.029382799645589527
largest 0.025997616156613237 -0.10139228817589009 -0.06921616925801333 -0.07503781237245381 0.24230023362665587 -0.11544256889400423 0.18401959115066135 0.344203044428247 -0.04069587633883016 -0.3875179348636799 0.005744226358047508 0.03301357093876453 0.04266533367380037 0.06587078604493757 0.2360056741742717 0.36322775122940365 0.04954963971506114 0.27705379285030024 -0.2544835470627203 0.05518913343914526 0.20747878563341876 0.10551418843032974 0.03506080856340675 -0.18374574470826074 0.00601759869062129 -0.13212191561654732 -0.06486595298786789 0.17447554372337729 -0.10164835561690085 0.10958416476642388 -0.3157427413149698 -0.19419531237939588 0.055398811840520916 -0.0662456350224025 0.12473795295643808 0.06822558167669594 0.09379940524086652 0.05630168657619391 0.026126364287751638 -0.019986143455939496 -0.04072655407414627 -0.053117143789934256 0.09070706944243424 -0.06784770123622047 -0.12229419912076842 -0.13388376600222462 -0.14987363278305108 0.36771341502373805 0.21141187440660916 -0.04656070281711899 -0.18442344004977593 0.17425424379183474 0.028325541749232144 -0.06656574253201915 0.018487348457514423 -0.026580839489125888 0.08134806885720486 0.34878798357643076 0.11833452173609184 0.12857042426024462 -0.233912852314547 -0.075375284024846 0.13392562032906027 0.014197825763172 0.08584125808929656 0.374943019805513 -0.044358386291906894 0.05313700535091936 -0.1886613651529088 -0.0010421861678104243 0.02245995968610095 0.07603327285461942 0.02375053150806029 -0.051660278413186496 -0.1599714811425273 0.0018872385912758738 -0.11558884845754089 0.17454176653424552 -0.21294468247660867 -0.04871736141476351 0.26028520618065143 -0.3906056858815874 0.16102120236708678 -0.028043704128158674 0.31702245188497813 0.1542638012328297 0.13886635731181057 -0.08251512808981862 -0.19424931128325598 0.11765477644051826 -0.22430970842562645 0.1590371892533386 -0.03809292324432322 -0.22274015248821327 -0.045315765211745455 -0.21670664724015146 -0.10828835896743912 0.08820070126521627 -0.1332864769617941 -0.030034776278190338
between 0.02771051584340941 -0.09320923354116274 -0.06993948516478311 -0.07989668907627184 0.22963835131511193 -0.11775653679336327 0.18221611069349394 0.3367461794537872 -0.03438967638413128 -0.36944080323564144 -0.0005550427879666131 0.03324009001375969 0.041042423594755614 0.0548032086414959 0.2337407741967345 0.3570907245778054 0.05268504468065194 0.2662829098292889 -0.2491325369723456 0.049237181486375355 0.20425399763079669 0.10963850665705374 0.0325042746580646 -0.18331675322177135 0.0022889995267855964 -0.12766385106138586 -0.06765464538751359 0.17203216268724972 -0.09096836381393746 0.10101378077692394 -0.31088976656692735 -0.18341104808199923 0.05465239227079338 -0.06419876571492389 0.12738880144245812 0.07151381450101486 0.09812409833634012 0.061294352164359314 0.030297832936417562 -0.020577214566584234 -0.04149219180225914 -0.04684130903726542 0.08584736846819793 -0.06598853069734066 -0.12090017204930918 -0.12130091119876735 -0.15441427564834273 0.353888933387562 0.207144873515941 -0.0459787003488171 -0.1722549727840988 0.16932021425521332 0.03104657507962574 -0.06448574444426508 0.010271279353788885 -0.028241166111387342 0.0818956462889163 0.33127856992399896 0.1171324810129373 0.12362459420385619 -0.21873347127746257 -0.07532397787937856 0.1332158570163662 0.018602478517892224 0.08601927806665652 0.36595551197349446 -0.03409922121977374 0.0578153025721002 -0.18339536098770964 -0.008081668516249944 0.0261654832334468 0.07570502551549246 0.024586672446179396 -0.058102835302074045 -0.15230695012131326 0.0032304697658035266 -0.11261951155875502 0.17275086697286637 -0.20198435384100544 -0.054635722364650405 0.24830505233695555 -0.3820803325249684 0.1483473660541224 -0.028544167071739145 0.30923614011013717 0.1582652018262876 0.13435045816982474 -0.07757928265104806 -0.18977048834129556 0.11183269566990102 -0.21327951162687414 0.1542465988873788 -0.0313921138167036 -0.20962830829835366 -0.03990766574403146 -0.21110883988787962 -0.10288564444811768 0.0889809593749765 -0.14105612619598992 -0.024027348392393993
